{"learner":{"attributes":{"scikit_learn":"{\"_estimator_type\": \"classifier\"}"},"feature_names":[],"feature_types":[],"gradient_booster":{"model":{"gbtree_model_param":{"num_parallel_tree":"1","num_trees":"700"},"iteration_indptr":[0,7,14,21,28,35,42,49,56,63,70,77,84,91,98,105,112,119,126,133,140,147,154,161,168,175,182,189,196,203,210,217,224,231,238,245,252,259,266,273,280,287,294,301,308,315,322,329,336,343,350,357,364,371,378,385,392,399,406,413,420,427,434,441,448,455,462,469,476,483,490,497,504,511,518,525,532,539,546,553,560,567,574,581,588,595,602,609,616,623,630,637,644,651,658,665,672,679,686,693,700],"tree_info":[0,1,2,3,4,5,6,0,1,2,3,4,5,6,0,1,2,3,4,5,6,0,1,2,3,4,5,6,0,1,2,3,4,5,6,0,1,2,3,4,5,6,0,1,2,3,4,5,6,0,1,2,3,4,5,6,0,1,2,3,4,5,6,0,1,2,3,4,5,6,0,1,2,3,4,5,6,0,1,2,3,4,5,6,0,1,2,3,4,5,6,0,1,2,3,4,5,6,0,1,2,3,4,5,6,0,1,2,3,4,5,6,0,1,2,3,4,5,6,0,1,2,3,4,5,6,0,1,2,3,4,5,6,0,1,2,3,4,5,6,0,1,2,3,4,5,6,0,1,2,3,4,5,6,0,1,2,3,4,5,6,0,1,2,3,4,5,6,0,1,2,3,4,5,6,0,1,2,3,4,5,6,0,1,2,3,4,5,6,0,1,2,3,4,5,6,0,1,2,3,4,5,6,0,1,2,3,4,5,6,0,1,2,3,4,5,6,0,1,2,3,4,5,6,0,1,2,3,4,5,6,0,1,2,3,4,5,6,0,1,2,3,4,5,6,0,1,2,3,4,5,6,0,1,2,3,4,5,6,0,1,2,3,4,5,6,0,1,2,3,4,5,6,0,1,2,3,4,5,6,0,1,2,3,4,5,6,0,1,2,3,4,5,6,0,1,2,3,4,5,6,0,1,2,3,4,5,6,0,1,2,3,4,5,6,0,1,2,3,4,5,6,0,1,2,3,4,5,6,0,1,2,3,4,5,6,0,1,2,3,4,5,6,0,1,2,3,4,5,6,0,1,2,3,4,5,6,0,1,2,3,4,5,6,0,1,2,3,4,5,6,0,1,2,3,4,5,6,0,1,2,3,4,5,6,0,1,2,3,4,5,6,0,1,2,3,4,5,6,0,1,2,3,4,5,6,0,1,2,3,4,5,6,0,1,2,3,4,5,6,0,1,2,3,4,5,6,0,1,2,3,4,5,6,0,1,2,3,4,5,6,0,1,2,3,4,5,6,0,1,2,3,4,5,6,0,1,2,3,4,5,6,0,1,2,3,4,5,6,0,1,2,3,4,5,6,0,1,2,3,4,5,6,0,1,2,3,4,5,6,0,1,2,3,4,5,6,0,1,2,3,4,5,6,0,1,2,3,4,5,6,0,1,2,3,4,5,6,0,1,2,3,4,5,6,0,1,2,3,4,5,6,0,1,2,3,4,5,6,0,1,2,3,4,5,6,0,1,2,3,4,5,6,0,1,2,3,4,5,6,0,1,2,3,4,5,6,0,1,2,3,4,5,6,0,1,2,3,4,5,6,0,1,2,3,4,5,6,0,1,2,3,4,5,6,0,1,2,3,4,5,6,0,1,2,3,4,5,6,0,1,2,3,4,5,6,0,1,2,3,4,5,6,0,1,2,3,4,5,6,0,1,2,3,4,5,6,0,1,2,3,4,5,6,0,1,2,3,4,5,6,0,1,2,3,4,5,6,0,1,2,3,4,5,6,0,1,2,3,4,5,6,0,1,2,3,4,5,6,0,1,2,3,4,5,6,0,1,2,3,4,5,6,0,1,2,3,4,5,6],"trees":[{"base_weights":[-7.833561E-3,1.6886568E-2,-1.08702846E-1,-2.9416344E-1,2.3476332E-2,1.3153772E-1,-1.7224123E-1,-3.5999998E-1,1.733945E-1,9.35206E-2,-8.405195E-3,2.7050233E-1,-2.3001096E-1,-2.038275E-1,1.4413606E-1,-1.5841393E-1,-2.2192867E-1,1.1618257E0,7.954119E-2,5.302764E-2,-6.538729E-2,4.335855E-2,6.129729E-1,2.2105263E-1,-3.7153196E-1,-8.0585375E-2,-3.1017965E-1,8.2532746E-1,-2.988262E-2,-3.1770045E-1,8.6896546E-2,4.846154E-1,1.735537E-2,-1.5169758E-1,1.4486712E-1,2.0687197E-1,-6.760036E-3,-1.14658415E-1,1.0460591E-1,-2.106319E-1,5.4059404E-1,1.7372261E-1,1.5501729E0,-3.0567698E-2,-4.6379045E-1,-3.2313097E-1,7.2618656E-2,1.2938986E-2,-3.3999625E-1,3.106509E-1,3.8532108E-2,-1.4149822E-1,1.8827586E-1,-1.2778905E-1,-4.037734E-9,-1.024006E-1,-1.8299064E-2,7.499079E-2,3.8526168E-3,4.094937E-2,2.3887946E-1,-9.569624E-3,1.4271845E-1,-3.345599E-4,-5.448348E-2,7.933484E-2,-5.0299406E-2,-1.0857504E-1,9.130435E-2,1.1634344E-2,4.025907E-1,-1.9848777E-2,2.2536585E-1,5.549223E-1,1.8827586E-1,-1.2038217E-1,1.3884297E-1,-1.6044143E-1,3.8532108E-2,-1.378264E-1,3.3599953E-3,2.9401418E-3,1.6327077E-1,-6.548857E-2,3.082569E-1,-1.1904981E-1,-2.6124407E-2,-8.308323E-2,1.6050954E-1],"categories":[],"categories_nodes":[],"categories_segments":[],"categories_sizes":[],"default_left":[0,0,0,0,0,0,0,0,0,0,0,0,0,0,0,0,0,0,0,0,0,0,0,0,0,0,0,0,0,0,0,0,0,0,0,0,0,0,0,0,0,0,0,0,0,0,0,0,0,0,0,0,0,0,0,0,0,0,0,0,0,0,0,0,0,0,0,0,0,0,0,0,0,0,0,0,0,0,0,0,0,0,0,0,0,0,0,0,0],"id":0,"left_children":[1,3,5,7,9,11,13,15,-1,17,19,21,23,25,27,-1,29,31,33,35,37,39,41,-1,43,45,47,49,51,53,-1,-1,-1,55,57,59,61,63,65,67,69,71,73,75,77,79,81,83,85,-1,-1,87,-1,-1,-1,-1,-1,-1,-1,-1,-1,-1,-1,-1,-1,-1,-1,-1,-1,-1,-1,-1,-1,-1,-1,-1,-1,-1,-1,-1,-1,-1,-1,-1,-1,-1,-1,-1,-1],"loss_changes":[3.9125118E0,2.5906317E0,4.736894E0,1.7138584E0,2.759325E0,3.3361824E0,2.4744444E0,4.6287155E-1,0E0,5.679227E0,2.978311E0,3.670832E0,2.823267E0,2.8962755E0,2.726892E0,0E0,8.48951E-1,2.3692603E0,5.80075E0,3.7678838E0,3.7084372E0,3.8588426E0,7.5019345E0,0E0,5.180218E-1,3.9099889E0,1.1536341E0,5.515156E-1,1.49208E0,4.639845E-1,0E0,0E0,0E0,1.4369911E0,4.1429176E0,4.6460414E0,3.6036656E0,2.6045184E0,4.3830853E0,1.695351E0,4.0924635E0,1.9863368E0,4.6919155E-1,1.0404823E0,6.257291E-1,1.8584766E0,1.9179468E0,2.8145509E0,1.5358133E0,0E0,0E0,1.7208985E0,0E0,0E0,0E0,0E0,0E0,0E0,0E0,0E0,0E0,0E0,0E0,0E0,0E0,0E0,0E0,0E0,0E0,0E0,0E0,0E0,0E0,0E0,0E0,0E0,0E0,0E0,0E0,0E0,0E0,0E0,0E0,0E0,0E0,0E0,0E0,0E0,0E0],"parents":[2147483647,0,0,1,1,2,2,3,3,4,4,5,5,6,6,7,7,9,9,10,10,11,11,12,12,13,13,14,14,16,16,17,17,18,18,19,19,20,20,21,21,22,22,24,24,25,25,26,26,27,27,28,28,29,29,33,33,34,34,35,35,36,36,37,37,38,38,39,39,40,40,41,41,42,42,43,43,44,44,45,45,46,46,47,47,48,48,51,51],"right_children":[2,4,6,8,10,12,14,16,-1,18,20,22,24,26,28,-1,30,32,34,36,38,40,42,-1,44,46,48,50,52,54,-1,-1,-1,56,58,60,62,64,66,68,70,72,74,76,78,80,82,84,86,-1,-1,88,-1,-1,-1,-1,-1,-1,-1,-1,-1,-1,-1,-1,-1,-1,-1,-1,-1,-1,-1,-1,-1,-1,-1,-1,-1,-1,-1,-1,-1,-1,-1,-1,-1,-1,-1,-1,-1],"split_conditions":[9.252268E-1,-1.1331003E0,-9.0278125E-1,1.9371516E0,-4.5808962E-1,2.7385452E-1,1.5679682E0,-3.2521594E-1,1.733945E-1,-1.0203284E0,-7.791344E-2,7.15775E-1,-1.3862292E0,2.0397478E-1,1.6743566E0,-1.5841393E-1,1.3696303E0,-5.267763E-1,-7.5955015E-1,-6.413048E-1,1.6513186E0,-4.5808962E-1,-3.3919185E-1,2.2105263E-1,-1.14208825E-1,-3.2521594E-1,-1.2174766E0,-6.2684226E-1,2.017235E0,8.957394E-1,8.6896546E-2,4.846154E-1,1.735537E-2,-5.439192E-1,4.9521104E-1,1.4715005E0,9.8928857E-1,-3.6207993E-2,8.474247E-1,8.6742073E-1,-6.8128043E-1,9.391395E-1,-7.112186E-1,-1.897188E-1,1.5713172E0,-1.0328102E-1,1.0877901E0,1.2642089E0,1.0259775E0,3.106509E-1,3.8532108E-2,1.0541056E0,1.8827586E-1,-1.2778905E-1,-4.037734E-9,-1.024006E-1,-1.8299064E-2,7.499079E-2,3.8526168E-3,4.094937E-2,2.3887946E-1,-9.569624E-3,1.4271845E-1,-3.345599E-4,-5.448348E-2,7.933484E-2,-5.0299406E-2,-1.0857504E-1,9.130435E-2,1.1634344E-2,4.025907E-1,-1.9848777E-2,2.2536585E-1,5.549223E-1,1.8827586E-1,-1.2038217E-1,1.3884297E-1,-1.6044143E-1,3.8532108E-2,-1.378264E-1,3.3599953E-3,2.9401418E-3,1.6327077E-1,-6.548857E-2,3.082569E-1,-1.1904981E-1,-2.6124407E-2,-8.308323E-2,1.6050954E-1],"split_indices":[6,5,2,2,5,1,2,4,0,7,0,3,5,2,2,0,1,0,1,4,5,5,0,0,7,4,5,5,6,0,0,0,0,2,1,7,1,5,1,7,1,4,5,7,4,2,0,0,1,0,0,1,0,0,0,0,0,0,0,0,0,0,0,0,0,0,0,0,0,0,0,0,0,0,0,0,0,0,0,0,0,0,0,0,0,0,0,0,0],"split_type":[0,0,0,0,0,0,0,0,0,0,0,0,0,0,0,0,0,0,0,0,0,0,0,0,0,0,0,0,0,0,0,0,0,0,0,0,0,0,0,0,0,0,0,0,0,0,0,0,0,0,0,0,0,0,0,0,0,0,0,0,0,0,0,0,0,0,0,0,0,0,0,0,0,0,0,0,0,0,0,0,0,0,0,0,0,0,0,0,0],"sum_hessian":[1.567347E3,1.2595103E3,3.0783676E2,2.5224491E1,1.2342858E3,6.416327E1,2.436735E2,2.4000002E1,1.2244899E0,3.8546942E2,8.488164E2,4.6530617E1,1.7632654E1,2.2187756E2,2.179592E1,9.551021E0,1.444898E1,3.9183676E0,3.8155106E2,4.0848984E2,4.4032657E2,2.8653063E1,1.7877552E1,1.7142859E0,1.5918368E1,1.0359184E2,1.1828572E2,3.6734695E0,1.812245E1,1.2489797E1,1.9591838E0,2.4489799E0,1.4693879E0,8.375511E1,2.9779593E2,1.1363266E2,2.9485718E2,3.416327E2,9.8693886E1,1.9346941E1,9.306123E0,1.2979592E1,4.8979597E0,3.6734695E0,1.2244899E1,3.9673473E1,6.3918373E1,1.0040817E1,1.082449E2,2.4489799E0,1.2244899E0,1.6163267E1,1.9591838E0,9.061225E0,3.4285717E0,2.6204084E1,5.7551025E1,1.6530614E2,1.324898E2,1.0261225E2,1.1020409E1,2.8114288E2,1.3714287E1,1.2710205E2,2.1453062E2,6.2204086E1,3.64898E1,1.5183675E1,4.1632657E0,6.3673472E0,2.9387758E0,9.795919E0,3.1836736E0,2.9387758E0,1.9591838E0,2.2040818E0,1.4693879E0,1.1020409E1,1.2244899E0,2.791837E1,1.1755103E1,5.7306126E1,6.6122456E0,8.816327E0,1.2244899E0,8.791837E1,2.0326532E1,1.3959185E1,2.2040818E0],"tree_param":{"num_deleted":"0","num_feature":"8","num_nodes":"89","size_leaf_vector":"1"}},{"base_weights":[2.277191E-2,2.6868105E-1,1.4667741E-2,-1.1402716E-1,5.62814E-1,9.201632E-2,-2.4085504E-3,-3.270073E-1,2.089552E-1,1.1903881E0,1.5538289E-1,-4.2417116E-2,1.9688363E-1,2.9147077E-1,-9.749484E-3,-4.3326885E-1,-1.3459113E-8,-1.2727274E-1,3.3157894E-1,2.731707E-1,4.581818E-1,5.2238804E-1,-2.1829522E-1,-7.874847E-2,6.5116274E-1,5.3729177E-1,1.200128E-1,4.9507606E-1,-2.8266034E-1,-2.4547945E-1,-2.3003786E-3,-3.293941E-9,-1.5519631E-1,1.3884297E-1,-1.1586207E-1,-1.4404333E-1,1.6050954E-1,-1.4482763E-2,1.733945E-1,9.169329E-1,-2.0487805E-1,-3.9904988E-1,1.733945E-1,1.047641E-2,-2.834008E-1,9.032258E-1,-3.293941E-9,1.6068864E-1,8.594815E-1,3.1265506E-1,-3.8339593E-2,1.1441305E-1,9.6551716E-1,-1.5124653E-1,1.733945E-1,-3.6228436E-1,8.3419687E-1,2.5226524E-2,-5.614879E-2,4.025907E-1,4.970414E-2,3.8532108E-2,-1.1586207E-1,3.8532108E-2,-1.5124653E-1,2.508211E-2,-1.0070522E-1,-1.4881891E-1,-1.6535439E-2,3.8532108E-2,3.477707E-1,1.2537313E-1,-9.097473E-2,2.9999998E-1,-1.4482763E-2,-1.2124712E-1,1.30119E-1,7.998228E-2,-5.4499794E-2,-7.7634014E-2,3.596685E-1,3.818182E-1,-2.6751596E-2,-1.2262778E-2,-1.6679427E-1,1.735537E-2,3.818182E-1,-9.276648E-3,2.5764067E-2,-3.574824E-4,-4.1343838E-2],"categories":[],"categories_nodes":[],"categories_segments":[],"categories_sizes":[],"default_left":[0,0,0,0,0,0,0,0,0,0,0,0,0,0,0,0,0,0,0,0,0,0,0,0,0,0,0,0,0,0,0,0,0,0,0,0,0,0,0,0,0,0,0,0,0,0,0,0,0,0,0,0,0,0,0,0,0,0,0,0,0,0,0,0,0,0,0,0,0,0,0,0,0,0,0,0,0,0,0,0,0,0,0,0,0,0,0,0,0,0,0],"id":1,"left_children":[1,3,5,7,9,11,13,15,17,19,21,23,25,27,29,31,33,35,-1,37,-1,39,41,43,45,47,49,51,53,55,57,-1,-1,-1,-1,-1,-1,-1,-1,59,61,63,-1,65,67,69,-1,71,73,75,77,79,81,-1,-1,83,85,87,89,-1,-1,-1,-1,-1,-1,-1,-1,-1,-1,-1,-1,-1,-1,-1,-1,-1,-1,-1,-1,-1,-1,-1,-1,-1,-1,-1,-1,-1,-1,-1,-1],"loss_changes":[3.1216016E0,5.690235E0,2.0070431E0,1.6195883E0,7.0840273E0,3.882335E0,2.6899736E0,4.85767E-1,3.0251517E0,2.9943647E0,2.6357646E0,3.1064918E0,3.9797258E0,3.6921499E0,2.1350265E0,3.842386E-1,9.7030497E-1,2.0931737E0,0E0,4.3782073E-1,0E0,2.9342763E0,1.6435149E0,2.1230018E0,1.0082521E0,3.2816334E0,3.897374E0,3.9718142E0,1.9292345E0,4.9992256E0,1.7504162E0,0E0,0E0,0E0,0E0,0E0,0E0,0E0,0E0,1.8173318E0,3.024668E-1,5.411024E-1,0E0,2.09924E0,1.685677E0,7.295265E-1,0E0,1.8242091E0,1.956419E0,5.1718025E0,3.1427095E0,5.8689723E0,3.3734398E0,0E0,0E0,2.1130252E0,1.2673321E0,2.664117E0,1.7925724E0,0E0,0E0,0E0,0E0,0E0,0E0,0E0,0E0,0E0,0E0,0E0,0E0,0E0,0E0,0E0,0E0,0E0,0E0,0E0,0E0,0E0,0E0,0E0,0E0,0E0,0E0,0E0,0E0,0E0,0E0,0E0,0E0],"parents":[2147483647,0,0,1,1,2,2,3,3,4,4,5,5,6,6,7,7,8,8,9,9,10,10,11,11,12,12,13,13,14,14,15,15,16,16,17,17,19,19,21,21,22,22,23,23,24,24,25,25,26,26,27,27,28,28,29,29,30,30,39,39,40,40,41,41,43,43,44,44,45,45,47,47,48,48,49,49,50,50,51,51,52,52,55,55,56,56,57,57,58,58],"right_children":[2,4,6,8,10,12,14,16,18,20,22,24,26,28,30,32,34,36,-1,38,-1,40,42,44,46,48,50,52,54,56,58,-1,-1,-1,-1,-1,-1,-1,-1,60,62,64,-1,66,68,70,-1,72,74,76,78,80,82,-1,-1,84,86,88,90,-1,-1,-1,-1,-1,-1,-1,-1,-1,-1,-1,-1,-1,-1,-1,-1,-1,-1,-1,-1,-1,-1,-1,-1,-1,-1,-1,-1,-1,-1,-1,-1],"split_conditions":[-1.8051845E0,-3.2521594E-1,-9.5739365E-1,4.0484226E-1,-6.427786E-1,-1.0648731E-1,-1.8242357E0,-2.4986589E-1,-1.8675556E0,-2.8933698E-1,-1.1280833E-1,9.0913826E-1,1.0019363E-1,1.2552284E0,-1.2174766E0,-1.4267353E0,-9.5739365E-1,1.5219865E-2,3.3157894E-1,-2.0057507E0,4.581818E-1,1.2552284E0,2.3812377E0,4.7004998E-1,-1.9576369E-1,-1.2734824E0,-3.869886E-2,-1.14208825E-1,-1.8554999E0,1.3170823E0,5.071715E-1,-3.293941E-9,-1.5519631E-1,1.3884297E-1,-1.1586207E-1,-1.4404333E-1,1.6050954E-1,-1.4482763E-2,1.733945E-1,-6.741642E-1,-1.1163276E0,-9.127066E-3,1.733945E-1,1.0344387E0,-1.2734824E0,-4.7337654E-1,-3.293941E-9,-3.6207993E-2,1.42315E0,-6.3843375E-1,-7.9559493E-1,1.4210888E0,3.012973E-1,-1.5124653E-1,1.733945E-1,8.400077E-3,5.518345E-1,-1.0328102E-1,7.15775E-1,4.025907E-1,4.970414E-2,3.8532108E-2,-1.1586207E-1,3.8532108E-2,-1.5124653E-1,2.508211E-2,-1.0070522E-1,-1.4881891E-1,-1.6535439E-2,3.8532108E-2,3.477707E-1,1.2537313E-1,-9.097473E-2,2.9999998E-1,-1.4482763E-2,-1.2124712E-1,1.30119E-1,7.998228E-2,-5.4499794E-2,-7.7634014E-2,3.596685E-1,3.818182E-1,-2.6751596E-2,-1.2262778E-2,-1.6679427E-1,1.735537E-2,3.818182E-1,-9.276648E-3,2.5764067E-2,-3.574824E-4,-4.1343838E-2],"split_indices":[1,4,4,2,7,1,0,0,1,5,2,0,1,4,5,0,4,6,0,1,0,4,6,5,1,4,7,7,0,2,0,0,0,0,0,0,0,0,0,0,0,4,0,2,4,1,0,5,3,0,5,2,5,0,0,3,0,2,3,0,0,0,0,0,0,0,0,0,0,0,0,0,0,0,0,0,0,0,0,0,0,0,0,0,0,0,0,0,0,0,0],"split_type":[0,0,0,0,0,0,0,0,0,0,0,0,0,0,0,0,0,0,0,0,0,0,0,0,0,0,0,0,0,0,0,0,0,0,0,0,0,0,0,0,0,0,0,0,0,0,0,0,0,0,0,0,0,0,0,0,0,0,0,0,0,0,0,0,0,0,0,0,0,0,0,0,0,0,0,0,0,0,0,0,0,0,0,0,0,0,0,0,0,0,0],"sum_hessian":[1.567347E3,4.8979595E1,1.5183674E3,2.1551022E1,2.7428574E1,2.7379593E2,1.2445715E3,1.2979592E1,8.571429E0,1.0040817E1,1.7387756E1,1.202449E2,1.5355103E2,2.9387756E1,1.2151837E3,9.551021E0,3.4285717E0,6.8571434E0,1.7142859E0,3.1836736E0,6.8571434E0,8.571429E0,8.816327E0,1.1510205E2,5.1428576E0,2.7183676E1,1.26367355E2,2.179592E1,7.5918374E0,3.62449E1,1.1789388E3,1.7142859E0,7.8367352E0,1.4693879E0,1.9591838E0,4.6530614E0,2.2040818E0,1.9591838E0,1.2244899E0,5.3877554E0,3.1836736E0,7.5918374E0,1.2244899E0,8.081633E1,3.4285717E1,3.4285717E0,1.7142859E0,1.3224491E1,1.3959185E1,5.6571434E1,6.979592E1,1.27346945E1,9.061225E0,6.3673472E0,1.2244899E0,3.3306126E1,2.9387758E0,7.8048987E2,3.98449E2,2.9387758E0,2.4489799E0,1.2244899E0,1.9591838E0,1.2244899E0,6.3673472E0,6.734695E1,1.3469389E1,1.7142859E1,1.7142859E1,1.2244899E0,2.2040818E0,8.571429E0,4.6530614E0,1.2000001E1,1.9591838E0,7.8367352E0,4.8734695E1,2.2040817E1,4.7755104E1,1.0040817E1,2.6938777E0,6.8571434E0,2.2040818E0,1.2979592E1,2.0326532E1,1.4693879E0,1.4693879E0,4.0555106E2,3.749388E2,2.3877553E2,1.5967348E2],"tree_param":{"num_deleted":"0","num_feature":"8","num_nodes":"91","size_leaf_vector":"1"}},{"base_weights":[-9.7464025E-3,-2.9248644E-2,1.3876131E-1,-4.0358484E-2,2.4762264E-1,9.3631096E-2,5.741857E-1,-2.8861811E-2,-2.5291133E-1,-1.4264151E-1,3.2200578E-1,9.5850617E-1,6.685935E-2,1.0181818E0,1.7038538E-1,-3.901833E-2,5.153374E-1,-3.886121E-1,-1.510286E-1,6.2479335E-1,2.242631E-1,-3.293941E-9,4.4140127E-1,2.4277453E-1,-3.5932887E-2,6.6878974E-2,3.866426E-1,-2.0771514E-1,7.5121945E-1,-6.628992E-2,4.324109E-2,-3.422984E-2,7.708066E-1,-4.1635686E-1,3.8532108E-2,4.8837206E-1,-2.5732338E-1,3.8225237E-2,5.07027E-1,5.7502735E-1,9.099661E-2,-1.9861768E-1,1.5391117E-1,-1.3317074E-1,1.1602208E-1,3.818182E-1,-3.293941E-9,1.1024144E-2,-2.900766E-2,-9.163641E-3,5.0629318E-2,-1.4110672E-1,1.5365854E-1,4.04038E-1,2.5672367E-2,-1.3400778E-1,3.8532108E-2,2.7096775E-1,-1.10526316E-1,2.6195422E-2,-1.12299465E-1,6.5862484E-2,-5.5182487E-2,2.564602E-1,-1.0268953E-2,9.533417E-2,4.846154E-1,-2.1198744E-2,1.6691312E-1,5.0399996E-2,-8.987575E-2,1.3118163E-2,1.7038539E-1,1.733945E-1,-1.04132235E-1],"categories":[],"categories_nodes":[],"categories_segments":[],"categories_sizes":[],"default_left":[0,0,0,0,0,0,0,0,0,0,0,0,0,0,0,0,0,0,0,0,0,0,0,0,0,0,0,0,0,0,0,0,0,0,0,0,0,0,0,0,0,0,0,0,0,0,0,0,0,0,0,0,0,0,0,0,0,0,0,0,0,0,0,0,0,0,0,0,0,0,0,0,0,0,0],"id":2,"left_children":[1,3,5,7,9,11,13,15,17,-1,19,21,23,25,27,29,31,33,35,-1,37,-1,-1,39,41,-1,-1,43,45,47,49,51,53,55,-1,57,59,61,63,65,67,69,71,-1,73,-1,-1,-1,-1,-1,-1,-1,-1,-1,-1,-1,-1,-1,-1,-1,-1,-1,-1,-1,-1,-1,-1,-1,-1,-1,-1,-1,-1,-1,-1],"loss_changes":[4.546357E0,4.2767773E0,3.5270953E0,3.2536771E0,3.0388896E0,3.7866035E0,2.8597398E0,7.0237074E0,8.862438E-1,0E0,8.007471E0,2.417633E0,2.9451354E0,1.4036732E0,2.3656223E0,2.7954655E0,3.29564E0,4.6481228E-1,2.89004E0,0E0,2.4938395E0,0E0,0E0,2.9744222E0,3.223044E0,0E0,0E0,5.7737803E-1,1.6390245E0,2.933393E0,2.8814576E0,2.2300735E0,6.175539E0,5.110183E-1,0E0,2.5162082E0,1.4654889E0,1.2447469E0,3.5833554E0,4.4732933E0,3.2282717E0,2.127043E0,2.1770568E0,0E0,9.9091613E-1,0E0,0E0,0E0,0E0,0E0,0E0,0E0,0E0,0E0,0E0,0E0,0E0,0E0,0E0,0E0,0E0,0E0,0E0,0E0,0E0,0E0,0E0,0E0,0E0,0E0,0E0,0E0,0E0,0E0,0E0],"parents":[2147483647,0,0,1,1,2,2,3,3,4,4,5,5,6,6,7,7,8,8,10,10,11,11,12,12,13,13,14,14,15,15,16,16,17,17,18,18,20,20,23,23,24,24,27,27,28,28,29,29,30,30,31,31,32,32,33,33,35,35,36,36,37,37,38,38,39,39,40,40,41,41,42,42,44,44],"right_children":[2,4,6,8,10,12,14,16,18,-1,20,22,24,26,28,30,32,34,36,-1,38,-1,-1,40,42,-1,-1,44,46,48,50,52,54,56,-1,58,60,62,64,66,68,70,72,-1,74,-1,-1,-1,-1,-1,-1,-1,-1,-1,-1,-1,-1,-1,-1,-1,-1,-1,-1,-1,-1,-1,-1,-1,-1,-1,-1,-1,-1,-1,-1],"split_conditions":[1.2887735E0,2.5632393E0,1.471231E0,1.7886842E0,-1.4957745E0,-5.858892E-1,2.017235E0,1.6743566E0,-3.0583045E-1,-1.4264151E-1,-1.445633E0,-3.7371328E-1,-3.9465797E-1,2.2620517E-1,8.71884E-1,7.9191077E-1,-6.413048E-1,8.689416E-1,-1.1871695E-1,6.2479335E-1,4.585221E-1,-3.293941E-9,4.4140127E-1,1.4830575E0,6.70813E-1,6.6878974E-2,3.866426E-1,6.168249E-1,1.2399962E0,-9.4788665E-1,3.2862377E-1,1.9722125E-1,-3.487829E-1,1.5470104E0,3.8532108E-2,3.012973E-1,-5.692062E-1,-1.14208825E-1,4.2804424E-2,-5.2724636E-1,2.0927072E0,-6.9897485E-1,1.5669422E0,-1.3317074E-1,9.606021E-1,3.818182E-1,-3.293941E-9,1.1024144E-2,-2.900766E-2,-9.163641E-3,5.0629318E-2,-1.4110672E-1,1.5365854E-1,4.04038E-1,2.5672367E-2,-1.3400778E-1,3.8532108E-2,2.7096775E-1,-1.10526316E-1,2.6195422E-2,-1.12299465E-1,6.5862484E-2,-5.5182487E-2,2.564602E-1,-1.0268953E-2,9.533417E-2,4.846154E-1,-2.1198744E-2,1.6691312E-1,5.0399996E-2,-8.987575E-2,1.3118163E-2,1.7038539E-1,1.733945E-1,-1.04132235E-1],"split_indices":[0,6,6,2,1,1,6,2,1,0,1,5,2,2,1,7,4,0,1,0,1,0,0,0,2,0,0,2,1,1,2,6,6,7,0,5,0,7,2,2,0,3,5,0,2,0,0,0,0,0,0,0,0,0,0,0,0,0,0,0,0,0,0,0,0,0,0,0,0,0,0,0,0,0,0],"split_type":[0,0,0,0,0,0,0,0,0,0,0,0,0,0,0,0,0,0,0,0,0,0,0,0,0,0,0,0,0,0,0,0,0,0,0,0,0,0,0,0,0,0,0,0,0,0,0,0,0,0,0,0,0,0,0,0,0,0,0,0,0,0,0,0,0,0,0,0,0,0,0,0,0,0,0],"sum_hessian":[1.567347E3,1.3861226E3,1.812245E2,1.3334695E3,5.2653065E1,1.6530614E2,1.5918368E1,1.2661226E3,6.734695E1,4.4081635E0,4.82449E1,3.9183676E0,1.6138777E2,6.8571434E0,9.061225E0,1.2438368E3,2.2285715E1,2.7673471E1,3.9673473E1,1.4693879E0,4.6775513E1,1.7142859E0,2.2040818E0,5.9020412E1,1.02367355E2,2.2040818E0,4.6530614E0,5.8775516E0,3.1836736E0,9.3428577E2,3.0955106E2,7.346939E0,1.4938777E1,2.6448982E1,1.2244899E0,5.1428576E0,3.4530613E1,2.889796E1,1.7877552E1,1.7632654E1,4.1387756E1,5.5102043E1,4.726531E1,3.1836736E0,2.6938777E0,1.4693879E0,1.7142859E0,2.1281635E2,7.214694E2,1.9542859E2,1.1412246E2,4.1632657E0,3.1836736E0,7.5918374E0,7.346939E0,2.5224491E1,1.2244899E0,3.4285717E0,1.7142859E0,8.816327E0,2.5714287E1,1.5918368E1,1.2979592E1,1.0530613E1,7.346939E0,1.5183675E1,2.4489799E0,3.1346941E1,1.0040817E1,1.1755103E1,4.3346943E1,3.8204082E1,9.061225E0,1.2244899E0,1.4693879E0],"tree_param":{"num_deleted":"0","num_feature":"8","num_nodes":"75","size_leaf_vector":"1"}},{"base_weights":[-1.9948225E-2,-1.1097507E-1,3.0791112E-3,-1.299304E-1,4.9480245E-1,1.9899806E-2,-8.641087E-2,3.6574725E-2,-1.784584E-1,9.554896E-1,-1.3056995E-1,4.6503026E-2,-5.316457E-2,-2.6404715E-1,-2.3252612E-2,-1.4821243E-1,9.0212065E-1,-3.432639E-1,-9.8678425E-2,-5.8091298E-2,6.9517237E-1,-3.0384988E-2,9.156252E-2,-9.562026E-2,1.7815824E-1,3.043478E-1,-3.1994873E-1,3.9103448E-1,-5.0077163E-2,-2.1716958E-1,1.4558056E-1,-1.10526316E-1,1.1379962E0,1.4522819E-1,-3.7128574E-1,-2.4430059E-1,1.891464E-2,-1.2762432E-1,1.733945E-1,-6.918442E-2,2.619191E-1,-1.5623563E-2,1.7837426E-1,-1.793844E-1,2.7841723E-2,5.466893E-1,3.886488E-2,-1.8134716E-1,3.082569E-1,-5.015806E-1,-1.8945177E-1,-1.697575E-1,6.479715E-2,-9.178973E-2,2.9619134E-3,3.3157894E-1,-3.8336717E-2,1.735537E-2,3.9059082E-1,2.603306E-1,-1.2426036E-1,-1.2897746E-1,-1.06961E-2,-1.1660556E-1,-2.2327233E-2,-3.1916697E-2,1.4791888E-1,1.4065587E-3,-5.3449996E-2,5.232786E-2,2.7845305E-1,3.2058116E-2,-4.1882575E-2,9.6513465E-2,3.1771477E-2,-6.9477506E-2,-1.516611E-2,7.36519E-2,-5.033399E-2,7.485148E-2,4.4210526E-1,1.3291138E-1,-4.888094E-2,-1.10526316E-1,3.8532108E-2,-1.6522235E-1,1.735537E-2,-1.3627288E-1,-4.927943E-9,-6.1485063E-2,1.0456432E-1,2.8965518E-1,8.219173E-3],"categories":[],"categories_nodes":[],"categories_segments":[],"categories_sizes":[],"default_left":[0,0,0,0,0,0,0,0,0,0,0,0,0,0,0,0,0,0,0,0,0,0,0,0,0,0,0,0,0,0,0,0,0,0,0,0,0,0,0,0,0,0,0,0,0,0,0,0,0,0,0,0,0,0,0,0,0,0,0,0,0,0,0,0,0,0,0,0,0,0,0,0,0,0,0,0,0,0,0,0,0,0,0,0,0,0,0,0,0,0,0,0,0],"id":3,"left_children":[1,3,5,7,9,11,13,15,17,19,-1,21,23,25,27,29,31,33,35,37,-1,39,41,43,45,47,49,-1,51,53,55,-1,57,59,61,63,65,-1,-1,67,69,71,73,75,77,79,81,83,-1,85,87,89,91,-1,-1,-1,-1,-1,-1,-1,-1,-1,-1,-1,-1,-1,-1,-1,-1,-1,-1,-1,-1,-1,-1,-1,-1,-1,-1,-1,-1,-1,-1,-1,-1,-1,-1,-1,-1,-1,-1,-1,-1],"loss_changes":[3.287763E0,3.7005613E0,1.8873488E0,2.4940615E0,4.6217194E0,2.0536816E0,2.2196121E0,1.13785925E1,3.1026402E0,9.627321E0,0E0,2.684827E0,2.787952E0,1.747688E0,5.312711E0,1.2227694E0,4.16844E0,1.1135187E0,2.7811809E0,1.39503E0,0E0,3.2707407E0,4.546861E0,2.4770806E0,2.2426841E0,1.9998968E0,1.0373693E0,0E0,2.0112221E0,9.711373E-1,3.2305226E0,0E0,1.8367958E0,2.3474858E0,1.431036E0,1.7495699E0,5.437169E0,0E0,0E0,2.0455842E0,1.8093505E0,3.3475094E0,2.7695103E0,9.470763E-1,4.1922984E0,2.9437912E0,2.770413E0,2.7558464E-1,0E0,5.645013E-1,1.475265E0,1.3761935E0,2.4986863E0,0E0,0E0,0E0,0E0,0E0,0E0,0E0,0E0,0E0,0E0,0E0,0E0,0E0,0E0,0E0,0E0,0E0,0E0,0E0,0E0,0E0,0E0,0E0,0E0,0E0,0E0,0E0,0E0,0E0,0E0,0E0,0E0,0E0,0E0,0E0,0E0,0E0,0E0,0E0,0E0],"parents":[2147483647,0,0,1,1,2,2,3,3,4,4,5,5,6,6,7,7,8,8,9,9,11,11,12,12,13,13,14,14,15,15,16,16,17,17,18,18,19,19,21,21,22,22,23,23,24,24,25,25,26,26,28,28,29,29,30,30,32,32,33,33,34,34,35,35,36,36,39,39,40,40,41,41,42,42,43,43,44,44,45,45,46,46,47,47,49,49,50,50,51,51,52,52],"right_children":[2,4,6,8,10,12,14,16,18,20,-1,22,24,26,28,30,32,34,36,38,-1,40,42,44,46,48,50,-1,52,54,56,-1,58,60,62,64,66,-1,-1,68,70,72,74,76,78,80,82,84,-1,86,88,90,92,-1,-1,-1,-1,-1,-1,-1,-1,-1,-1,-1,-1,-1,-1,-1,-1,-1,-1,-1,-1,-1,-1,-1,-1,-1,-1,-1,-1,-1,-1,-1,-1,-1,-1,-1,-1,-1,-1,-1,-1],"split_conditions":[-6.9897485E-1,1.985516E0,1.0676918E0,-8.416503E-1,1.3959905E0,6.565221E-1,2.139293E-1,1.5400405E-1,-5.0501597E-1,8.6742073E-1,-1.3056995E-1,-3.2521594E-1,1.8593452E0,-7.338679E-1,2.5061822E-1,1.1072282E0,-9.643476E-1,-1.8301063E0,-4.5808962E-1,3.069618E-1,6.9517237E-1,6.79124E-1,-5.828224E-1,1.5400405E-1,-7.9559493E-1,-8.206984E-1,-4.5808962E-1,3.9103448E-1,-1.6741272E-2,1.2294369E0,1.471231E0,-1.10526316E-1,-1.3223683E0,1.8702409E-1,1.1078886E0,2.9342195E-1,1.5219865E-2,-1.2762432E-1,1.733945E-1,-3.168516E-1,1.4715005E0,7.15775E-1,-2.2316636E-1,4.044344E-2,1.1232108E-1,1.8352337E0,-3.2521594E-1,1.4026642E0,3.082569E-1,2.0927072E0,-2.5079706E-1,2.2208135E0,8.664891E-3,-9.178973E-2,2.9619134E-3,3.3157894E-1,-3.8336717E-2,1.735537E-2,3.9059082E-1,2.603306E-1,-1.2426036E-1,-1.2897746E-1,-1.06961E-2,-1.1660556E-1,-2.2327233E-2,-3.1916697E-2,1.4791888E-1,1.4065587E-3,-5.3449996E-2,5.232786E-2,2.7845305E-1,3.2058116E-2,-4.1882575E-2,9.6513465E-2,3.1771477E-2,-6.9477506E-2,-1.516611E-2,7.36519E-2,-5.033399E-2,7.485148E-2,4.4210526E-1,1.3291138E-1,-4.888094E-2,-1.10526316E-1,3.8532108E-2,-1.6522235E-1,1.735537E-2,-1.3627288E-1,-4.927943E-9,-6.1485063E-2,1.0456432E-1,2.8965518E-1,8.219173E-3],"split_indices":[3,0,0,0,7,2,1,1,2,7,0,4,2,1,1,6,5,2,5,4,0,0,2,1,5,1,5,0,2,5,6,0,7,1,0,1,6,0,0,2,7,3,2,0,7,6,4,0,0,0,1,1,2,0,0,0,0,0,0,0,0,0,0,0,0,0,0,0,0,0,0,0,0,0,0,0,0,0,0,0,0,0,0,0,0,0,0,0,0,0,0,0,0],"split_type":[0,0,0,0,0,0,0,0,0,0,0,0,0,0,0,0,0,0,0,0,0,0,0,0,0,0,0,0,0,0,0,0,0,0,0,0,0,0,0,0,0,0,0,0,0,0,0,0,0,0,0,0,0,0,0,0,0,0,0,0,0,0,0,0,0,0,0,0,0,0,0,0,0,0,0,0,0,0,0,0,0,0,0,0,0,0,0,0,0,0,0,0,0],"sum_hessian":[1.567347E3,3.156735E2,1.2516736E3,3.0685718E2,8.816327E0,1.0542858E3,1.9738777E2,6.930613E1,2.3755104E2,5.8775516E0,2.9387758E0,7.731429E2,2.8114288E2,5.0938778E1,1.4644899E2,5.779592E1,1.1510205E1,7.6408165E1,1.6114287E2,3.9183676E0,1.9591838E0,2.8579593E2,4.87347E2,2.3804083E2,4.3102043E1,4.1632657E0,4.6775513E1,1.9591838E0,1.444898E2,4.7020412E1,1.0775511E1,1.7142859E0,9.795919E0,3.9183676E0,7.24898E1,7.151021E1,8.963266E1,2.6938777E0,1.2244899E0,2.5297961E2,3.281633E1,2.1844899E2,2.6889798E2,1.4155103E2,9.64898E1,1.1020409E1,3.2081635E1,2.9387758E0,1.2244899E0,1.8367348E1,2.8408165E1,7.053062E1,7.395919E1,3.355102E1,1.3469389E1,1.7142859E0,9.061225E0,1.4693879E0,8.326531E0,1.4693879E0,2.4489799E0,6.146939E1,1.1020409E1,3.7959187E1,3.355102E1,7.151021E1,1.812245E1,1.5134695E2,1.0163266E2,3.0122452E1,2.6938777E0,1.0995919E2,1.0848981E2,8.914286E1,1.7975511E2,1.0016327E2,4.1387756E1,4.5551025E1,5.0938778E1,9.306123E0,1.7142859E0,1.0285715E1,2.179592E1,1.7142859E0,1.2244899E0,1.689796E1,1.4693879E0,1.1265306E1,1.7142859E1,6.661225E1,3.9183676E0,1.9591838E0,7.200001E1],"tree_param":{"num_deleted":"0","num_feature":"8","num_nodes":"93","size_leaf_vector":"1"}},{"base_weights":[-1.1659245E-2,4.6287277E-3,-1.3691352E-1,2.7842766E-1,-4.244692E-3,-4.0523395E-1,-9.170707E-2,1.4969046E-1,8.044009E-1,-1.2482439E-1,1.5415496E-2,-4.7239262E-1,1.6568045E-1,2.2371738E-1,-1.487756E-1,-1.7634174E-1,4.676889E-1,-1.2038217E-1,1.3023255E0,-1.7184204E-8,-2.2857709E-1,2.4119964E-2,-2.7261832E-1,3.8532108E-2,-5.1156336E-1,-9.633028E-2,1.733945E-1,-1.1475411E-1,8.0224717E-1,-1.9440983E-1,1.362162E-1,-1.6047403E-8,-1.4861539E-1,6.5279764E-1,-1.0566039E-1,1.7717842E0,-9.633028E-2,1.6568045E-1,-1.7325084E-1,-1.01957224E-1,-3.2048193E-1,1.5516672E-2,2.57537E-1,-3.6668906E-1,3.9737988E-1,-1.6508672E-1,-2.9056603E-1,1.6050954E-1,-2.5547445E-1,-5.8091298E-2,1.4664031E0,-1.1125354E-1,-3.7280452E-1,-2.4396783E-1,3.6106485E-1,-1.3548388E-1,6.268656E-2,2.4842882E-1,1.0243898E-2,-1.3317074E-1,1.733945E-1,6.0331494E-1,1.733945E-1,1.6248533E-1,-2.1105532E-2,-1.4041606E-1,-9.952612E-3,-7.072873E-2,7.879282E-2,9.7674415E-2,-1.1635885E-1,1.0659894E-2,-5.3159263E-2,-1.7055843E-2,1.6454455E-1,-1.4240344E-1,5.6300224E-3,-1.04132235E-1,2.541401E-1,3.8532108E-2,-1.3317074E-1,-1.289109E-1,5.5021834E-2,1.3884297E-1,-1.2426036E-1,5.2209944E-1,1.3884297E-1,-1.5272728E-1,-2.0028055E-2,-1.3281153E-1,6.774193E-2,-1.4110672E-1,4.970414E-2,2.2865328E-1,-4.883721E-2],"categories":[],"categories_nodes":[],"categories_segments":[],"categories_sizes":[],"default_left":[0,0,0,0,0,0,0,0,0,0,0,0,0,0,0,0,0,0,0,0,0,0,0,0,0,0,0,0,0,0,0,0,0,0,0,0,0,0,0,0,0,0,0,0,0,0,0,0,0,0,0,0,0,0,0,0,0,0,0,0,0,0,0,0,0,0,0,0,0,0,0,0,0,0,0,0,0,0,0,0,0,0,0,0,0,0,0,0,0,0,0,0,0,0,0],"id":4,"left_children":[1,3,5,7,9,11,13,15,17,19,21,23,25,27,29,31,33,-1,35,37,39,41,43,-1,45,-1,-1,47,49,51,53,55,-1,57,59,61,-1,63,65,67,69,71,73,75,77,-1,79,-1,81,83,85,87,89,91,93,-1,-1,-1,-1,-1,-1,-1,-1,-1,-1,-1,-1,-1,-1,-1,-1,-1,-1,-1,-1,-1,-1,-1,-1,-1,-1,-1,-1,-1,-1,-1,-1,-1,-1,-1,-1,-1,-1,-1,-1],"loss_changes":[3.2002783E0,3.3754065E0,2.1523926E0,2.832676E0,3.1933107E0,1.0649829E0,2.8373702E0,3.8423781E0,5.53355E0,2.445599E0,2.910864E0,6.137357E-1,8.7780255E-1,4.843592E0,1.7498271E0,1.0482838E0,2.046495E0,0E0,5.2505875E0,2.5177753E0,1.1673589E0,2.255834E0,2.2924988E0,0E0,2.8910637E-2,0E0,0E0,1.6164914E0,5.2744207E0,1.6590586E0,1.7018145E0,1.3211362E0,0E0,1.5143495E0,1.507132E0,2.4251175E-1,0E0,4.016617E0,1.7550845E0,2.2492976E0,2.7071252E0,4.1969566E0,3.6843863E0,1.273799E0,1.8588923E0,0E0,4.044837E-1,0E0,1.1477668E0,1.1040441E0,6.140051E-1,1.3752391E0,1.6071763E0,7.838839E-1,2.701325E0,0E0,0E0,0E0,0E0,0E0,0E0,0E0,0E0,0E0,0E0,0E0,0E0,0E0,0E0,0E0,0E0,0E0,0E0,0E0,0E0,0E0,0E0,0E0,0E0,0E0,0E0,0E0,0E0,0E0,0E0,0E0,0E0,0E0,0E0,0E0,0E0,0E0,0E0,0E0,0E0],"parents":[2147483647,0,0,1,1,2,2,3,3,4,4,5,5,6,6,7,7,8,8,9,9,10,10,11,11,12,12,13,13,14,14,15,15,16,16,18,18,19,19,20,20,21,21,22,22,24,24,27,27,28,28,29,29,30,30,31,31,33,33,34,34,35,35,37,37,38,38,39,39,40,40,41,41,42,42,43,43,44,44,46,46,48,48,49,49,50,50,51,51,52,52,53,53,54,54],"right_children":[2,4,6,8,10,12,14,16,18,20,22,24,26,28,30,32,34,-1,36,38,40,42,44,-1,46,-1,-1,48,50,52,54,56,-1,58,60,62,-1,64,66,68,70,72,74,76,78,-1,80,-1,82,84,86,88,90,92,94,-1,-1,-1,-1,-1,-1,-1,-1,-1,-1,-1,-1,-1,-1,-1,-1,-1,-1,-1,-1,-1,-1,-1,-1,-1,-1,-1,-1,-1,-1,-1,-1,-1,-1,-1,-1,-1,-1,-1,-1],"split_conditions":[1.2742392E0,-1.2174766E0,1.3696303E0,1.2552284E0,-1.2011873E0,1.6532323E0,-9.496239E-1,1.8783104E-1,-6.2991595E-1,-5.307843E-1,1.7735404E0,-1.5379354E0,2.1367973E-2,-1.140964E0,1.3337551E0,-3.869886E-2,8.1440467E-1,-1.2038217E-1,8.6742073E-1,-7.485435E-1,-1.5919883E0,1.6225204E0,1.5713172E0,3.8532108E-2,1.42315E0,-9.633028E-2,1.733945E-1,1.4796971E0,7.9191077E-1,1.5009227E0,1.1232108E-1,-9.5739365E-1,-1.4861539E-1,1.1519423E0,1.0932405E0,7.972832E-1,-9.633028E-2,-3.6207993E-2,-7.646352E-1,-4.2323503E-1,-1.557784E0,1.3204806E0,6.71736E-2,1.42315E0,-1.6641255E-1,-1.6508672E-1,-5.0501597E-1,1.6050954E-1,1.6505437E0,-1.0853881E0,1.8380257E0,-1.0487239E0,1.6225204E0,1.7426344E0,1.820442E0,-1.3548388E-1,6.268656E-2,2.4842882E-1,1.0243898E-2,-1.3317074E-1,1.733945E-1,6.0331494E-1,1.733945E-1,1.6248533E-1,-2.1105532E-2,-1.4041606E-1,-9.952612E-3,-7.072873E-2,7.879282E-2,9.7674415E-2,-1.1635885E-1,1.0659894E-2,-5.3159263E-2,-1.7055843E-2,1.6454455E-1,-1.4240344E-1,5.6300224E-3,-1.04132235E-1,2.541401E-1,3.8532108E-2,-1.3317074E-1,-1.289109E-1,5.5021834E-2,1.3884297E-1,-1.2426036E-1,5.2209944E-1,1.3884297E-1,-1.5272728E-1,-2.0028055E-2,-1.3281153E-1,6.774193E-2,-1.4110672E-1,4.970414E-2,2.2865328E-1,-4.883721E-2],"split_indices":[1,5,1,4,0,6,2,7,1,6,7,2,2,2,2,7,1,0,7,1,0,7,4,0,3,0,0,1,7,0,7,4,0,2,1,1,0,5,2,1,2,7,1,3,1,0,2,0,0,2,1,5,7,1,2,0,0,0,0,0,0,0,0,0,0,0,0,0,0,0,0,0,0,0,0,0,0,0,0,0,0,0,0,0,0,0,0,0,0,0,0,0,0,0,0],"split_type":[0,0,0,0,0,0,0,0,0,0,0,0,0,0,0,0,0,0,0,0,0,0,0,0,0,0,0,0,0,0,0,0,0,0,0,0,0,0,0,0,0,0,0,0,0,0,0,0,0,0,0,0,0,0,0,0,0,0,0,0,0,0,0,0,0,0,0,0,0,0,0,0,0,0,0,0,0,0,0,0,0,0,0,0,0,0,0,0,0,0,0,0,0,0,0],"sum_hessian":[1.567347E3,1.3878368E3,1.7951022E2,4.2612247E1,1.3452246E3,2.4734695E1,1.5477553E2,3.526531E1,7.346939E0,1.8783675E2,1.1573878E3,2.2285715E1,2.4489799E0,2.3265308E1,1.3151021E2,1.7632654E1,1.7632654E1,2.2040818E0,5.1428576E0,8.5714294E1,1.0212246E2,1.1243267E3,3.3061226E1,1.2244899E0,2.1061226E1,1.2244899E0,1.2244899E0,1.5183675E1,8.081634E0,1.1363266E2,1.7877552E1,1.2000001E1,5.632653E0,1.3224491E1,4.4081635E0,3.9183676E0,1.2244899E0,4.383674E1,4.1877556E1,4.383674E1,5.8285717E1,1.0853878E3,3.8938778E1,2.9387756E1,3.6734695E0,1.6653063E1,4.4081635E0,2.2040818E0,1.2979592E1,3.9183676E0,4.1632657E0,7.861225E1,3.5020412E1,6.6122456E0,1.1265306E1,3.4285717E0,8.571429E0,1.0040817E1,3.1836736E0,3.1836736E0,1.2244899E0,2.6938777E0,1.2244899E0,1.6408165E1,2.7428574E1,1.27346945E1,2.9142859E1,3.2326534E1,1.1510205E1,5.1428576E0,5.314286E1,9.8400006E2,1.01387764E2,1.9102041E1,1.9836737E1,2.2775513E1,6.6122456E0,1.4693879E0,2.2040818E0,1.2244899E0,3.1836736E0,9.306123E0,3.6734695E0,1.4693879E0,2.4489799E0,2.6938777E0,1.4693879E0,6.8571434E0,7.1755104E1,3.1591839E1,3.4285717E0,4.1632657E0,2.4489799E0,6.1224494E0,5.1428576E0],"tree_param":{"num_deleted":"0","num_feature":"8","num_nodes":"95","size_leaf_vector":"1"}},{"base_weights":[1.2570087E-2,-2.7422285E-2,9.904164E-2,1.09591484E-1,-4.356694E-2,1.6548358E-1,-3.34518E-2,1.8363062E-1,-3.1629014E-1,-2.9801017E-1,-3.129102E-2,8.023982E-2,3.607659E-1,-1.0212353E-1,1.7491423E-1,-7.100909E-2,3.4274054E-1,-1.6044143E-1,1.6279067E-1,3.043478E-1,-3.6842105E-1,-8.282407E-3,-1.1694863E-1,1.0825755E-1,-3.398058E-1,7.1230334E-1,2.581893E-1,-3.3734939E-1,-6.069747E-2,-1.6384916E-1,3.6563206E-1,-1.8217307E-1,3.8181815E-1,1.1630769E0,2.3639771E-1,3.082569E-1,-2.614108E-1,5.803108E-1,-9.633028E-2,-4.2726752E-1,1.10671915E-1,-2.2792737E-1,2.0618988E-3,1.3670301E-1,-1.7265177E-1,-2.8519062E-2,2.2292991E-1,1.1602208E-1,-4.516129E-1,9.590268E-1,6.0171902E-2,6.47848E-2,4.8781866E-1,-1.59823E-1,-1.7632255E-2,1.1482648E-1,-1.3372248E-1,-4.259635E-1,2.584615E-1,7.988394E-1,8.206329E-2,-1.5201074E-1,-2.2506189E-2,2.8965518E-1,7.2664316E-3,3.8532108E-2,4.120755E-1,-1.7483816E-2,1.2731169E-1,3.8532108E-2,-1.2762432E-1,-3.293941E-9,3.082569E-1,-9.17031E-3,-1.4151303E-1,-1.3056995E-1,3.082569E-1,-9.751802E-2,3.173803E-2,6.060402E-3,-4.673324E-2,-5.8292905E-3,2.2865328E-1,-6.249155E-2,1.1787941E-1,5.4726616E-2,-4.9683444E-2,3.9763314E-1,5.6477405E-2,1.733945E-1,-1.04132235E-1,-1.5879017E-1,3.8532108E-2,1.0899654E-1,3.5711643E-1,3.082569E-1,-9.446367E-2,-8.6459294E-2,1.2220232E-1,2.4363178E-1,6.376102E-2,2.2366863E-1,-1.4404333E-1,2.1072663E-1,-4.68402E-3,-9.952607E-2,-1.7941102E-3,-1.5519631E-1,3.8532108E-2,-1.2762432E-1,2.5025907E-1,7.753845E-2,4.0954357E-1,-1.7771514E-2,1.7409325E-1],"categories":[],"categories_nodes":[],"categories_segments":[],"categories_sizes":[],"default_left":[0,0,0,0,0,0,0,0,0,0,0,0,0,0,0,0,0,0,0,0,0,0,0,0,0,0,0,0,0,0,0,0,0,0,0,0,0,0,0,0,0,0,0,0,0,0,0,0,0,0,0,0,0,0,0,0,0,0,0,0,0,0,0,0,0,0,0,0,0,0,0,0,0,0,0,0,0,0,0,0,0,0,0,0,0,0,0,0,0,0,0,0,0,0,0,0,0,0,0,0,0,0,0,0,0,0,0,0,0,0,0,0,0,0,0],"id":5,"left_children":[1,3,5,7,9,11,13,15,17,19,21,23,25,27,29,31,33,-1,35,37,39,41,43,45,47,49,51,53,55,57,59,61,63,65,67,-1,69,71,-1,73,75,77,79,81,83,85,87,89,91,93,95,97,99,-1,101,103,105,107,109,111,113,-1,-1,-1,-1,-1,-1,-1,-1,-1,-1,-1,-1,-1,-1,-1,-1,-1,-1,-1,-1,-1,-1,-1,-1,-1,-1,-1,-1,-1,-1,-1,-1,-1,-1,-1,-1,-1,-1,-1,-1,-1,-1,-1,-1,-1,-1,-1,-1,-1,-1,-1,-1,-1,-1],"loss_changes":[5.4263773E0,2.3786545E0,4.3735023E0,3.634056E0,2.9916172E0,5.474962E0,2.4010177E0,3.9642832E0,1.8838179E0,1.9826081E0,1.8076E0,2.7606459E0,3.428667E0,1.2063341E0,2.751039E0,1.9937043E0,4.9610443E0,0E0,2.5219326E0,1.0775218E0,1.1732779E0,1.6464258E0,2.7678373E0,3.4214172E0,8.023076E-1,3.4918594E0,3.4823322E0,1.1546032E0,1.4030607E0,1.8473083E0,3.2462213E0,1.0527586E0,1.6166265E0,1.2681637E0,3.0373678E0,0E0,3.69106E-1,1.022199E0,0E0,6.163163E-1,3.0314968E0,1.0908601E0,1.9868203E0,3.4846532E0,3.3020701E0,2.9273653E0,4.282234E0,9.9091613E-1,6.0965896E-1,1.7642374E0,2.9076107E0,5.4500523E0,3.0429554E0,0E0,3.21789E0,2.4902277E0,1.9438131E0,5.760355E-1,2.966364E0,2.875977E0,1.2599672E0,0E0,0E0,0E0,0E0,0E0,0E0,0E0,0E0,0E0,0E0,0E0,0E0,0E0,0E0,0E0,0E0,0E0,0E0,0E0,0E0,0E0,0E0,0E0,0E0,0E0,0E0,0E0,0E0,0E0,0E0,0E0,0E0,0E0,0E0,0E0,0E0,0E0,0E0,0E0,0E0,0E0,0E0,0E0,0E0,0E0,0E0,0E0,0E0,0E0,0E0,0E0,0E0,0E0,0E0],"parents":[2147483647,0,0,1,1,2,2,3,3,4,4,5,5,6,6,7,7,8,8,9,9,10,10,11,11,12,12,13,13,14,14,15,15,16,16,18,18,19,19,20,20,21,21,22,22,23,23,24,24,25,25,26,26,27,27,28,28,29,29,30,30,31,31,32,32,33,33,34,34,36,36,37,37,39,39,40,40,41,41,42,42,43,43,44,44,45,45,46,46,47,47,48,48,49,49,50,50,51,51,52,52,54,54,55,55,56,56,57,57,58,58,59,59,60,60],"right_children":[2,4,6,8,10,12,14,16,18,20,22,24,26,28,30,32,34,-1,36,38,40,42,44,46,48,50,52,54,56,58,60,62,64,66,68,-1,70,72,-1,74,76,78,80,82,84,86,88,90,92,94,96,98,100,-1,102,104,106,108,110,112,114,-1,-1,-1,-1,-1,-1,-1,-1,-1,-1,-1,-1,-1,-1,-1,-1,-1,-1,-1,-1,-1,-1,-1,-1,-1,-1,-1,-1,-1,-1,-1,-1,-1,-1,-1,-1,-1,-1,-1,-1,-1,-1,-1,-1,-1,-1,-1,-1,-1,-1,-1,-1,-1,-1],"split_conditions":[5.071715E-1,-9.643476E-1,5.0964266E-1,9.4159293E-1,-8.7997127E-1,-1.0328102E-1,5.544263E-1,-7.9028785E-1,1.7219922E-1,-7.1828854E-1,1.3981895E0,2.0927072E0,7.170875E-1,6.8589795E-1,8.9946854E-1,2.3716561E-1,-1.445633E0,-1.6044143E-1,-7.9242325E-1,1.2289547E0,1.5713172E0,-1.6220933E0,-1.1877884E0,2.63341E-1,-1.2902253E0,7.972832E-1,8.877825E-1,6.2305063E-1,3.681111E-2,7.15775E-1,-9.127066E-3,-1.3575796E0,-1.14208825E-1,1.9722125E-1,8.400077E-3,3.082569E-1,-3.869886E-2,5.969764E-1,-9.633028E-2,-1.2902253E0,9.153474E-1,1.471231E0,1.6532323E0,4.1491352E-2,1.2962525E0,-8.257688E-1,-1.1007571E0,5.453526E-1,-2.2316636E-1,-6.9897485E-1,-1.6741272E-2,-3.7371328E-1,-3.2521594E-1,-1.59823E-1,1.5219865E-2,-9.643476E-1,3.3622572E-1,8.6453503E-1,-5.307843E-1,-6.413048E-1,1.42315E0,-1.5201074E-1,-2.2506189E-2,2.8965518E-1,7.2664316E-3,3.8532108E-2,4.120755E-1,-1.7483816E-2,1.2731169E-1,3.8532108E-2,-1.2762432E-1,-3.293941E-9,3.082569E-1,-9.17031E-3,-1.4151303E-1,-1.3056995E-1,3.082569E-1,-9.751802E-2,3.173803E-2,6.060402E-3,-4.673324E-2,-5.8292905E-3,2.2865328E-1,-6.249155E-2,1.1787941E-1,5.4726616E-2,-4.9683444E-2,3.9763314E-1,5.6477405E-2,1.733945E-1,-1.04132235E-1,-1.5879017E-1,3.8532108E-2,1.0899654E-1,3.5711643E-1,3.082569E-1,-9.446367E-2,-8.6459294E-2,1.2220232E-1,2.4363178E-1,6.376102E-2,2.2366863E-1,-1.4404333E-1,2.1072663E-1,-4.68402E-3,-9.952607E-2,-1.7941102E-3,-1.5519631E-1,3.8532108E-2,-1.2762432E-1,2.5025907E-1,7.753845E-2,4.0954357E-1,-1.7771514E-2,1.7409325E-1],"split_indices":[0,5,2,1,5,2,5,0,0,7,5,0,0,2,2,1,1,0,2,2,4,2,0,7,2,1,1,4,7,3,4,1,7,6,3,0,7,2,0,2,2,6,6,1,1,2,1,1,2,3,2,5,4,0,6,5,1,2,6,4,3,0,0,0,0,0,0,0,0,0,0,0,0,0,0,0,0,0,0,0,0,0,0,0,0,0,0,0,0,0,0,0,0,0,0,0,0,0,0,0,0,0,0,0,0,0,0,0,0,0,0,0,0,0,0],"split_type":[0,0,0,0,0,0,0,0,0,0,0,0,0,0,0,0,0,0,0,0,0,0,0,0,0,0,0,0,0,0,0,0,0,0,0,0,0,0,0,0,0,0,0,0,0,0,0,0,0,0,0,0,0,0,0,0,0,0,0,0,0,0,0,0,0,0,0,0,0,0,0,0,0,0,0,0,0,0,0,0,0,0,0,0,0,0,0,0,0,0,0,0,0,0,0,0,0,0,0,0,0,0,0,0,0,0,0,0,0,0,0,0,0,0,0],"sum_hessian":[1.567347E3,1.0721633E3,4.9518372E2,1.1240817E2,9.597552E2,3.296327E2,1.6555103E2,9.62449E1,1.6163267E1,4.3102043E1,9.1665314E2,2.3044899E2,9.918368E1,1.24897964E2,4.0653065E1,3.722449E1,5.9020412E1,1.1020409E1,5.1428576E0,4.1632657E0,3.8938778E1,7.2342865E2,1.932245E2,2.1673471E2,1.3714287E1,2.1061226E1,7.812245E1,1.7632654E1,1.0726531E2,1.4693878E1,2.5959185E1,3.036735E1,6.8571434E0,5.632653E0,5.338776E1,1.2244899E0,3.9183676E0,2.9387758E0,1.2244899E0,3.4775513E1,4.1632657E0,3.1591839E1,6.918368E2,3.4530613E1,1.586939E2,9.918368E1,1.17551025E2,2.6938777E0,1.1020409E1,1.4938777E1,6.1224494E0,4.3102043E1,3.5020412E1,1.0530613E1,7.1020412E0,3.1346941E1,7.591837E1,9.061225E0,5.632653E0,9.551021E0,1.6408165E1,6.6122456E0,2.3755104E1,1.9591838E0,4.8979597E0,1.2244899E0,4.4081635E0,2.1061226E1,3.2326534E1,1.2244899E0,2.6938777E0,1.7142859E0,1.2244899E0,3.6734695E0,3.1102043E1,2.9387758E0,1.2244899E0,2.4489798E1,7.1020412E0,6.2130615E2,7.053062E1,2.8408165E1,6.1224494E0,1.4987756E2,8.816327E0,3.8938778E1,6.0244904E1,2.4489799E0,1.1510205E2,1.2244899E0,1.4693879E0,9.795919E0,1.2244899E0,4.8979597E0,1.0040817E1,1.2244899E0,4.8979597E0,2.1306124E1,2.179592E1,1.5183675E1,1.9836737E1,2.4489799E0,4.6530614E0,4.8979597E0,2.6448982E1,2.9142859E1,4.6775513E1,7.8367352E0,1.2244899E0,2.6938777E0,2.9387758E0,5.632653E0,3.9183676E0,1.3469389E1,2.9387758E0],"tree_param":{"num_deleted":"0","num_feature":"8","num_nodes":"115","size_leaf_vector":"1"}},{"base_weights":[1.3845315E-2,1.1323062E-1,-1.1290155E-2,8.860757E-2,5.649432E-1,1.8918917E-1,-2.87388E-2,1.3234732E-1,-2.5043988E-1,3.167883E-1,4.4140127E-1,8.014614E-2,6.959537E-1,-1.3753223E-1,8.292839E-3,9.203582E-2,5.2E-1,-5.0993377E-1,1.6068864E-1,-1.5844272E-8,1.198895E0,5.649432E-1,-3.5406142E-2,1.0321168E0,-1.3755459E-1,4.472843E-1,-1.5004614E-1,5.177195E-1,3.3648065E-4,3.817084E-2,4.5543262E-1,-2.7667984E-1,6.9245833E-1,-3.293941E-9,-1.6618705E-1,-1.4893618E-1,8.2532746E-1,5.518672E-1,-3.6842105E-1,1.3884297E-1,4.4311926E-1,-1.2426036E-1,7.696879E-1,-2.5472358E-1,1.23674884E-1,1.6568045E-1,1.2017698E0,-1.1586207E-1,9.032258E-1,8.279939E-2,-1.8845488E-1,-5.8091298E-2,7.6586425E-1,3.732336E-2,-6.273951E-2,2.7891925E-2,-7.44241E-2,1.6884421E-1,-1.3056995E-1,3.8532108E-2,-1.3056995E-1,8.093306E-2,2.984402E-1,6.823104E-2,-1.4532873E-1,-1.04132235E-1,4.4140127E-1,4.4311926E-1,-4.6408843E-2,-1.4651163E-1,3.8532108E-2,2.706362E-1,-9.633028E-2,-1.0597141E-1,5.8131482E-2,-1.0552769E-2,1.3846153E-1,1.733945E-1,-9.633028E-2,5.2209944E-1,2.52194E-1,-1.4482763E-2,5.033058E-1,-3.9968282E-2,1.233782E-1,-6.66795E-2,4.759202E-3,1.733945E-1,-1.2762432E-1,4.404878E-1,4.8837204E-2,6.447545E-3,1.445061E-1,7.866805E-2,-2.5226101E-2],"categories":[],"categories_nodes":[],"categories_segments":[],"categories_sizes":[],"default_left":[0,0,0,0,0,0,0,0,0,0,0,0,0,0,0,0,0,0,0,0,0,0,0,0,0,0,0,0,0,0,0,0,0,0,0,0,0,0,0,0,0,0,0,0,0,0,0,0,0,0,0,0,0,0,0,0,0,0,0,0,0,0,0,0,0,0,0,0,0,0,0,0,0,0,0,0,0,0,0,0,0,0,0,0,0,0,0,0,0,0,0,0,0,0,0],"id":6,"left_children":[1,3,5,7,9,11,13,15,17,19,-1,21,23,25,27,29,31,33,35,37,39,41,43,45,-1,47,49,51,53,55,57,59,61,-1,-1,63,65,67,69,-1,-1,-1,71,73,75,77,79,-1,81,83,85,87,89,91,93,-1,-1,-1,-1,-1,-1,-1,-1,-1,-1,-1,-1,-1,-1,-1,-1,-1,-1,-1,-1,-1,-1,-1,-1,-1,-1,-1,-1,-1,-1,-1,-1,-1,-1,-1,-1,-1,-1,-1,-1],"loss_changes":[3.9191606E0,3.472157E0,4.387405E0,4.5041924E0,3.1740294E0,5.4938188E0,4.6473327E0,4.135356E0,3.7941551E0,3.906473E0,0E0,4.713058E0,7.324214E0,2.2107906E0,3.4909382E0,4.7527676E0,3.626442E0,4.842534E-1,3.0501604E0,2.4979253E0,7.274389E-2,3.563222E0,2.4246206E0,1.8558025E0,0E0,2.7763276E0,2.5870771E0,1.9369802E0,1.9832357E0,3.3695617E0,3.2449589E0,3.8755435E-1,2.3944454E0,0E0,0E0,1.4424591E0,4.05042E0,3.4436836E0,5.0181353E-1,0E0,0E0,0E0,2.2737322E0,1.3569752E0,2.186032E0,8.7780255E-1,7.7955246E-1,0E0,3.3444066E0,2.99297E0,1.710659E0,1.39503E0,3.7118435E0,3.7593834E0,2.2018929E0,0E0,0E0,0E0,0E0,0E0,0E0,0E0,0E0,0E0,0E0,0E0,0E0,0E0,0E0,0E0,0E0,0E0,0E0,0E0,0E0,0E0,0E0,0E0,0E0,0E0,0E0,0E0,0E0,0E0,0E0,0E0,0E0,0E0,0E0,0E0,0E0,0E0,0E0,0E0,0E0],"parents":[2147483647,0,0,1,1,2,2,3,3,4,4,5,5,6,6,7,7,8,8,9,9,11,11,12,12,13,13,14,14,15,15,16,16,17,17,18,18,19,19,20,20,21,21,22,22,23,23,25,25,26,26,27,27,28,28,29,29,30,30,31,31,32,32,35,35,36,36,37,37,38,38,42,42,43,43,44,44,45,45,46,46,48,48,49,49,50,50,51,51,52,52,53,53,54,54],"right_children":[2,4,6,8,10,12,14,16,18,20,-1,22,24,26,28,30,32,34,36,38,40,42,44,46,-1,48,50,52,54,56,58,60,62,-1,-1,64,66,68,70,-1,-1,-1,72,74,76,78,80,-1,82,84,86,88,90,92,94,-1,-1,-1,-1,-1,-1,-1,-1,-1,-1,-1,-1,-1,-1,-1,-1,-1,-1,-1,-1,-1,-1,-1,-1,-1,-1,-1,-1,-1,-1,-1,-1,-1,-1,-1,-1,-1,-1,-1,-1],"split_conditions":[-6.9897485E-1,1.7569265E0,-1.4044038E0,1.1154209E0,1.2294369E0,9.153474E-1,8.400077E-3,1.5713172E0,1.502865E0,8.963433E-1,4.4140127E-1,-1.0958384E0,1.820442E0,-1.8333126E0,-1.8301063E0,7.113041E-1,-1.0958384E0,-1.3223683E0,3.4415168E-1,-3.2521594E-1,9.391395E-1,-1.154461E0,-1.14208825E-1,-1.962691E0,-1.3755459E-1,-4.1624868E-1,-1.3223683E0,-9.127066E-3,4.3039393E-1,1.0386609E0,2.017235E0,-1.0298121E0,1.900644E-1,-3.293941E-9,-1.6618705E-1,-6.2991595E-1,-5.307843E-1,1.9832002E0,6.121295E-1,1.3884297E-1,4.4311926E-1,-1.2426036E-1,9.2028864E-2,1.2552284E0,-1.6143198E0,-4.4035652E-1,1.2559488E0,-1.1586207E-1,-2.0496064E-1,6.2305063E-1,1.2694458E0,-9.5739365E-1,-7.112186E-1,3.6802277E-1,-1.1331003E0,2.7891925E-2,-7.44241E-2,1.6884421E-1,-1.3056995E-1,3.8532108E-2,-1.3056995E-1,8.093306E-2,2.984402E-1,6.823104E-2,-1.4532873E-1,-1.04132235E-1,4.4140127E-1,4.4311926E-1,-4.6408843E-2,-1.4651163E-1,3.8532108E-2,2.706362E-1,-9.633028E-2,-1.0597141E-1,5.8131482E-2,-1.0552769E-2,1.3846153E-1,1.733945E-1,-9.633028E-2,5.2209944E-1,2.52194E-1,-1.4482763E-2,5.033058E-1,-3.9968282E-2,1.233782E-1,-6.66795E-2,4.759202E-3,1.733945E-1,-1.2762432E-1,4.404878E-1,4.8837204E-2,6.447545E-3,1.445061E-1,7.866805E-2,-2.5226101E-2],"split_indices":[3,2,0,2,5,2,3,4,2,1,0,7,2,1,2,2,7,7,0,4,4,2,7,0,0,7,7,4,1,0,6,2,0,0,0,1,6,2,0,0,0,0,2,4,0,1,2,0,5,4,2,4,5,1,5,0,0,0,0,0,0,0,0,0,0,0,0,0,0,0,0,0,0,0,0,0,0,0,0,0,0,0,0,0,0,0,0,0,0,0,0,0,0,0,0],"split_type":[0,0,0,0,0,0,0,0,0,0,0,0,0,0,0,0,0,0,0,0,0,0,0,0,0,0,0,0,0,0,0,0,0,0,0,0,0,0,0,0,0,0,0,0,0,0,0,0,0,0,0,0,0,0,0,0,0,0,0,0,0,0,0,0,0,0,0,0,0,0,0,0,0,0,0,0,0,0,0,0,0,0,0,0,0,0,0,0,0,0,0,0,0,0,0],"sum_hessian":[1.567347E3,3.156735E2,1.2516736E3,3.004898E2,1.5183675E1,9.942858E1,1.152245E3,2.666939E2,3.379592E1,1.2979592E1,2.2040818E0,8.277551E1,1.6653063E1,2.919184E2,8.603266E2,2.426939E2,2.4000002E1,2.057143E1,1.3224491E1,1.0285715E1,2.6938777E0,1.5183675E1,6.759184E1,1.2979592E1,3.6734695E0,5.3877554E0,2.8653064E2,1.2244899E1,8.4808167E2,2.1232654E2,3.036735E1,4.1632657E0,1.9836737E1,1.7142859E0,1.8857143E1,9.551021E0,3.6734695E0,3.9183676E0,6.3673472E0,1.4693879E0,1.2244899E0,2.4489799E0,1.27346945E1,2.8163267E1,3.9428574E1,2.4489799E0,1.0530613E1,1.9591838E0,3.4285717E0,4.0408165E1,2.4612247E2,3.9183676E0,8.326531E0,5.348572E2,3.1322452E2,1.7877553E2,3.355102E1,2.7428574E1,2.9387758E0,1.2244899E0,2.9387758E0,9.061225E0,1.0775511E1,4.6530614E0,4.8979597E0,1.4693879E0,2.2040818E0,1.2244899E0,2.6938777E0,5.1428576E0,1.2244899E0,1.1510205E1,1.2244899E0,2.3265308E1,4.8979597E0,2.7428574E1,1.2000001E1,1.2244899E0,1.2244899E0,2.6938777E0,7.8367352E0,1.9591838E0,1.4693879E0,2.4734695E1,1.56734705E1,2.1110205E2,3.5020412E1,1.2244899E0,2.6938777E0,3.1836736E0,5.1428576E0,5.174694E2,1.7387756E1,1.8612246E1,2.9461227E2],"tree_param":{"num_deleted":"0","num_feature":"8","num_nodes":"95","size_leaf_vector":"1"}},{"base_weights":[-6.386822E-3,2.9643965E-1,-1.2783676E-2,4.9284846E-1,9.2162594E-2,1.0053521E-2,-1.1196517E-1,-1.271941E-1,7.032403E-1,-1.4589442E-1,3.856294E-1,-2.60759E-1,1.5357165E-2,-2.4635669E-2,-2.1267097E-1,3.9752078E-1,3.5787597E-1,1.4613712E-1,3.611076E-1,-3.3164388E-1,1.890658E-1,6.823753E-3,2.3464401E-1,-3.167602E-1,4.203045E-2,-2.829742E-1,1.3787246E-1,8.1529415E-1,-2.9264398E-2,-1.2662122E-1,6.931163E-1,-1.527078E-1,-1.9418661E-1,1.2060786E-2,-3.313912E-1,-1.1245557E-3,7.1549994E-1,-4.7005212E-1,3.4103307E-1,-1.8391986E-1,1.1517551E-1,4.962544E-2,-3.145952E-1,6.4410573E-1,-1.3170477E-2,4.815878E-2,4.4254646E-1,-1.2474335E-1,9.433545E-2,1.6893858E-1,-1.4455618E-1,3.0812332E-1,2.6359817E-2,-9.950547E-2,4.1333638E-2,1.6764594E-2,-8.119727E-3,-1.4053674E-1,1.9378856E-2,2.2263946E-1,-3.3233564E-2,3.0476716E-1,1.3203745E-2,-7.678031E-2,-1.6257212E-1,-1.0079195E-1,1.8483607E-1,-7.09216E-2,2.1135524E-1,2.7185997E-1,1.55824395E-2,-8.716087E-2,3.882769E-1,-1.08406655E-1,-3.268982E-2,5.6527976E-2,2.7822894E-1,-3.5027064E-2,1.5575224E-1],"categories":[],"categories_nodes":[],"categories_segments":[],"categories_sizes":[],"default_left":[0,0,0,0,0,0,0,0,0,0,0,0,0,0,0,0,0,0,0,0,0,0,0,0,0,0,0,0,0,0,0,0,0,0,0,0,0,0,0,0,0,0,0,0,0,0,0,0,0,0,0,0,0,0,0,0,0,0,0,0,0,0,0,0,0,0,0,0,0,0,0,0,0,0,0,0,0,0,0],"id":7,"left_children":[1,3,5,7,9,11,13,-1,15,-1,17,19,21,23,25,-1,27,29,-1,31,-1,33,35,37,39,41,43,45,47,49,51,-1,53,55,57,59,61,63,65,67,69,71,73,75,77,-1,-1,-1,-1,-1,-1,-1,-1,-1,-1,-1,-1,-1,-1,-1,-1,-1,-1,-1,-1,-1,-1,-1,-1,-1,-1,-1,-1,-1,-1,-1,-1,-1,-1],"loss_changes":[3.0326414E0,1.2539914E0,3.4715664E0,3.438718E0,3.0914125E0,1.7941091E0,2.517474E0,0E0,2.450488E0,0E0,2.1567192E0,1.7244749E0,2.2875948E0,3.0271962E0,3.3189397E0,0E0,1.8169693E0,1.631612E0,0E0,4.5907688E-1,0E0,2.0914931E0,5.1923294E0,3.0716336E0,2.11824E0,1.1849594E0,1.759898E0,1.7835679E0,9.876466E-1,2.1703482E0,6.369463E-1,0E0,7.079438E-1,1.9930613E0,1.0075455E0,2.6678503E0,2.9944758E0,2.2803497E-1,1.3311752E0,1.6314579E0,4.7783337E0,4.828516E0,9.381952E-1,5.074024E-1,1.0874841E0,0E0,0E0,0E0,0E0,0E0,0E0,0E0,0E0,0E0,0E0,0E0,0E0,0E0,0E0,0E0,0E0,0E0,0E0,0E0,0E0,0E0,0E0,0E0,0E0,0E0,0E0,0E0,0E0,0E0,0E0,0E0,0E0,0E0,0E0],"parents":[2147483647,0,0,1,1,2,2,3,3,4,4,5,5,6,6,8,8,10,10,11,11,12,12,13,13,14,14,16,16,17,17,19,19,21,21,22,22,23,23,24,24,25,25,26,26,27,27,28,28,29,29,30,30,32,32,33,33,34,34,35,35,36,36,37,37,38,38,39,39,40,40,41,41,42,42,43,43,44,44],"right_children":[2,4,6,8,10,12,14,-1,16,-1,18,20,22,24,26,-1,28,30,-1,32,-1,34,36,38,40,42,44,46,48,50,52,-1,54,56,58,60,62,64,66,68,70,72,74,76,78,-1,-1,-1,-1,-1,-1,-1,-1,-1,-1,-1,-1,-1,-1,-1,-1,-1,-1,-1,-1,-1,-1,-1,-1,-1,-1,-1,-1,-1,-1,-1,-1,-1,-1],"split_conditions":[-1.7800878E0,8.400077E-3,9.252268E-1,-8.7997127E-1,-7.1436083E-1,-1.1331003E0,2.0397478E-1,-1.271941E-1,-6.2684226E-1,-1.4589442E-1,-1.8301063E0,2.012576E0,5.6122404E-1,-9.5739365E-1,1.5679682E0,3.9752078E-1,-1.1431254E0,4.1491352E-2,3.611076E-1,-3.2521594E-1,1.890658E-1,3.7922263E-1,3.8269833E-1,7.164008E-1,-9.747918E-1,-1.2734824E0,1.6743566E0,-1.3106115E0,-3.6152333E-1,-1.14208825E-1,-2.1190237E-1,-1.527078E-1,1.0113019E0,-7.791344E-2,1.0184407E0,-9.9964225E-1,6.2305063E-1,-9.0278125E-1,-9.778724E-1,1.1584715E-1,-7.8034055E-1,2.5632393E0,1.074896E0,-3.6152333E-1,2.017235E0,4.815878E-2,4.4254646E-1,-1.2474335E-1,9.433545E-2,1.6893858E-1,-1.4455618E-1,3.0812332E-1,2.6359817E-2,-9.950547E-2,4.1333638E-2,1.6764594E-2,-8.119727E-3,-1.4053674E-1,1.9378856E-2,2.2263946E-1,-3.3233564E-2,3.0476716E-1,1.3203745E-2,-7.678031E-2,-1.6257212E-1,-1.0079195E-1,1.8483607E-1,-7.09216E-2,2.1135524E-1,2.7185997E-1,1.55824395E-2,-8.716087E-2,3.882769E-1,-1.08406655E-1,-3.268982E-2,5.6527976E-2,2.7822894E-1,-3.5027064E-2,1.5575224E-1],"split_indices":[2,3,6,5,0,5,2,0,5,0,2,2,6,4,2,0,0,1,0,4,0,6,1,7,1,4,2,0,0,7,0,0,1,0,7,2,4,2,0,2,1,6,1,0,6,0,0,0,0,0,0,0,0,0,0,0,0,0,0,0,0,0,0,0,0,0,0,0,0,0,0,0,0,0,0,0,0,0,0],"split_type":[0,0,0,0,0,0,0,0,0,0,0,0,0,0,0,0,0,0,0,0,0,0,0,0,0,0,0,0,0,0,0,0,0,0,0,0,0,0,0,0,0,0,0,0,0,0,0,0,0,0,0,0,0,0,0,0,0,0,0,0,0,0,0,0,0,0,0,0,0,0,0,0,0,0,0,0,0,0,0],"sum_hessian":[1.5625718E3,3.1386702E1,1.531185E3,1.5281326E1,1.6105375E1,1.2453367E3,2.858484E2,2.662724E0,1.2618603E1,5.199353E0,1.0906022E1,2.2995272E1,1.2223414E3,1.53758E2,1.320904E2,3.4929006E0,9.125702E0,9.347986E0,1.5580361E0,2.188214E1,1.1131341E0,1.177549E3,4.4792465E1,2.7872396E1,1.25885605E2,1.1018499E2,2.19054E1,3.6762094E0,5.449493E0,6.750346E0,2.5976403E0,8.373444E0,1.3508695E1,1.160543E3,1.7005896E1,3.0725233E1,1.4067234E1,2.2836092E1,5.0363045E0,3.0415499E1,9.547011E1,9.516633E0,1.0066836E2,4.2837286E0,1.7621672E1,2.4692779E0,1.2069315E0,2.4662113E0,2.9832816E0,2.0957744E0,4.6545715E0,1.224852E0,1.3727884E0,9.552815E0,3.9558792E0,5.472274E2,6.133156E2,1.24971895E1,4.508707E0,3.2086232E0,2.751661E1,9.364929E0,4.7023053E0,6.884133E0,1.595196E1,1.3911833E0,3.6451209E0,2.9411867E1,1.0036314E0,6.080122E0,8.9389984E1,8.076003E0,1.4406297E0,8.1400475E1,1.9267883E1,2.2806854E0,2.0030432E0,1.54047985E1,2.2168722E0],"tree_param":{"num_deleted":"0","num_feature":"8","num_nodes":"79","size_leaf_vector":"1"}},{"base_weights":[1.8647185E-2,2.2093269E-1,1.1704821E-2,-9.83547E-2,4.3646318E-1,-1.274469E-1,2.0082807E-2,-1.4578079E-1,5.8994796E-2,7.701126E-1,3.619605E-2,-1.9251065E-1,2.898063E-1,6.366946E-2,-9.790669E-3,-1.00830555E-1,6.270317E-1,4.3501413E-1,5.7219297E-1,2.7544945E-1,-2.4204595E-1,1.13517754E-1,-2.6503664E-1,6.363171E-1,-1.3569038E-1,4.798577E-2,6.6022295E-1,-1.2556882E-1,1.4759384E-2,-3.23298E-1,4.1859633E-1,2.8708896E-1,1.6424244E-2,-1.6469671E-1,7.422482E-1,-2.3603892E-1,6.5264463E-1,-1.4293121E-1,8.541666E-2,-1.8563499E-1,8.2817256E-1,-3.2145298E-1,2.3236346E-1,8.784877E-1,-1.0286783E-1,-1.5838102E-2,1.2055204E-1,2.3622029E-1,1.1454263E0,-3.851499E-1,-1.9388197E-2,4.7012005E-2,-1.1731725E-1,-1.4557993E-1,-1.1120256E-2,2.2079523E-1,-8.9995965E-2,-1.0786631E-1,3.8984336E-2,1.1903122E-1,3.235392E-1,4.9142085E-2,-1.2482206E-1,-8.853513E-2,2.8392512E-1,-1.440302E-1,2.4998778E-2,4.9482867E-1,-1.1058674E-1,-1.16070606E-1,3.675796E-2,-1.1672901E-1,1.7478333E-1,3.0485225E-1,3.616379E-2,1.0190897E-2,-6.254817E-2,1.7587611E-1,2.6736727E-2,1.9686036E-1,-7.8806065E-2,1.9366832E-2,5.983142E-1,-9.082357E-2,-1.6230574E-1,-1.3267313E-2,2.2063741E-1,2.4052532E-2,-4.054796E-2,-5.0071258E-2,5.325009E-2],"categories":[],"categories_nodes":[],"categories_segments":[],"categories_sizes":[],"default_left":[0,0,0,0,0,0,0,0,0,0,0,0,0,0,0,0,0,0,0,0,0,0,0,0,0,0,0,0,0,0,0,0,0,0,0,0,0,0,0,0,0,0,0,0,0,0,0,0,0,0,0,0,0,0,0,0,0,0,0,0,0,0,0,0,0,0,0,0,0,0,0,0,0,0,0,0,0,0,0,0,0,0,0,0,0,0,0,0,0,0,0],"id":8,"left_children":[1,3,5,7,9,11,13,-1,15,17,19,21,23,25,27,29,31,-1,33,35,37,39,41,43,-1,45,47,49,51,53,55,-1,-1,57,59,61,63,-1,-1,65,67,69,71,73,-1,75,77,79,81,83,85,87,89,-1,-1,-1,-1,-1,-1,-1,-1,-1,-1,-1,-1,-1,-1,-1,-1,-1,-1,-1,-1,-1,-1,-1,-1,-1,-1,-1,-1,-1,-1,-1,-1,-1,-1,-1,-1,-1,-1],"loss_changes":[2.210424E0,3.6373143E0,1.7799615E0,1.3621426E0,4.161063E0,2.4099643E0,1.8741789E0,0E0,1.5560704E0,1.4657507E0,1.0857918E0,1.7084544E0,3.3985274E0,5.44425E0,2.4309728E0,1.7177769E0,6.5551496E-1,0E0,1.984818E0,1.8323331E0,1.0752635E0,3.400741E0,1.7985497E0,2.355289E0,0E0,2.6481442E0,2.7977777E0,4.1163645E0,3.0129297E0,4.526646E-1,1.2567184E0,0E0,0E0,2.5372037E-1,9.9593925E-1,3.8680726E-1,1.7472537E0,0E0,0E0,9.526417E-1,5.1928196E0,1.6628289E0,1.7151589E0,6.315174E-1,0E0,2.9325967E0,3.8628798E0,2.104066E0,6.0151405E0,3.9341068E-1,2.042943E0,3.44322E0,2.0594966E0,0E0,0E0,0E0,0E0,0E0,0E0,0E0,0E0,0E0,0E0,0E0,0E0,0E0,0E0,0E0,0E0,0E0,0E0,0E0,0E0,0E0,0E0,0E0,0E0,0E0,0E0,0E0,0E0,0E0,0E0,0E0,0E0,0E0,0E0,0E0,0E0,0E0,0E0],"parents":[2147483647,0,0,1,1,2,2,3,3,4,4,5,5,6,6,8,8,9,9,10,10,11,11,12,12,13,13,14,14,15,15,16,16,18,18,19,19,20,20,21,21,22,22,23,23,25,25,26,26,27,27,28,28,29,29,30,30,33,33,34,34,35,35,36,36,39,39,40,40,41,41,42,42,43,43,45,45,46,46,47,47,48,48,49,49,50,50,51,51,52,52],"right_children":[2,4,6,8,10,12,14,-1,16,18,20,22,24,26,28,30,32,-1,34,36,38,40,42,44,-1,46,48,50,52,54,56,-1,-1,58,60,62,64,-1,-1,66,68,70,72,74,-1,76,78,80,82,84,86,88,90,-1,-1,-1,-1,-1,-1,-1,-1,-1,-1,-1,-1,-1,-1,-1,-1,-1,-1,-1,-1,-1,-1,-1,-1,-1,-1,-1,-1,-1,-1,-1,-1,-1,-1,-1,-1,-1,-1],"split_conditions":[-1.8051845E0,-3.2521594E-1,-1.4236196E0,-7.646352E-1,-3.407387E-1,1.0495237E0,8.400077E-3,-1.4578079E-1,9.252268E-1,-1.4831533E0,9.391395E-1,-1.1941582E0,-1.6678151E-1,2.012576E0,-1.1713483E0,-1.8675556E0,-2.0057507E0,4.3501413E-1,-6.7015606E-1,8.400077E-3,1.471231E0,-1.2727585E0,2.1992364E0,1.2552284E0,-1.3569038E-1,-2.8933698E-1,2.139293E-1,-7.082653E-1,9.605007E-1,-8.3048457E-1,-3.869886E-2,2.8708896E-1,1.6424244E-2,3.069618E-1,1.3981895E0,-1.3709066E0,-1.897188E-1,-1.4293121E-1,8.541666E-2,-3.7371328E-1,-5.307843E-1,8.6742073E-1,-1.0487239E0,1.5669422E0,-1.0286783E-1,9.8928857E-1,-2.0496064E-1,-3.927874E-1,-6.9897485E-1,-3.487829E-1,2.0927072E0,1.1900516E0,1.2892944E0,-1.4557993E-1,-1.1120256E-2,2.2079523E-1,-8.9995965E-2,-1.0786631E-1,3.8984336E-2,1.1903122E-1,3.235392E-1,4.9142085E-2,-1.2482206E-1,-8.853513E-2,2.8392512E-1,-1.440302E-1,2.4998778E-2,4.9482867E-1,-1.1058674E-1,-1.16070606E-1,3.675796E-2,-1.1672901E-1,1.7478333E-1,3.0485225E-1,3.616379E-2,1.0190897E-2,-6.254817E-2,1.7587611E-1,2.6736727E-2,1.9686036E-1,-7.8806065E-2,1.9366832E-2,5.983142E-1,-9.082357E-2,-1.6230574E-1,-1.3267313E-2,2.2063741E-1,2.4052532E-2,-4.054796E-2,-5.0071258E-2,5.325009E-2],"split_indices":[1,4,1,2,7,2,3,0,6,2,4,2,6,2,7,1,1,0,2,3,6,2,6,4,0,5,1,2,0,0,7,0,0,4,5,0,7,0,0,5,6,7,5,5,0,1,5,0,3,6,0,2,2,0,0,0,0,0,0,0,0,0,0,0,0,0,0,0,0,0,0,0,0,0,0,0,0,0,0,0,0,0,0,0,0,0,0,0,0,0,0],"split_type":[0,0,0,0,0,0,0,0,0,0,0,0,0,0,0,0,0,0,0,0,0,0,0,0,0,0,0,0,0,0,0,0,0,0,0,0,0,0,0,0,0,0,0,0,0,0,0,0,0,0,0,0,0,0,0,0,0,0,0,0,0,0,0,0,0,0,0,0,0,0,0,0,0,0,0,0,0,0,0,0,0,0,0,0,0,0,0,0,0,0,0],"sum_hessian":[1.5748369E3,5.1231705E1,1.5236051E3,2.0865366E1,3.0366339E1,8.571611E1,1.437889E3,5.421915E0,1.544345E1,1.6057415E1,1.4308925E1,7.461912E1,1.10969925E1,5.8427545E2,8.536136E2,1.2694237E1,2.7492132E0,2.19393E0,1.3863484E1,7.6988826E0,6.610042E0,1.418775E1,6.043137E1,7.6619625E0,3.4350305E0,5.703608E2,1.3914634E1,1.486176E2,7.0499603E2,9.152054E0,3.5421834E0,1.3174813E0,1.4317319E0,2.6053584E0,1.1258126E1,3.4265714E0,4.272311E0,4.6406703E0,1.9693719E0,1.0523066E1,3.664684E0,5.459303E1,5.8383403E0,6.2252436E0,1.4367188E0,3.0387595E2,2.6648483E2,8.219095E0,5.695539E0,4.238098E1,1.0623661E2,5.671453E2,1.378507E2,5.40064E0,3.7514136E0,2.4401765E0,1.1020069E0,1.4356314E0,1.169727E0,6.627829E0,4.630297E0,1.0918268E0,2.3347447E0,1.0098331E0,3.262478E0,4.648656E0,5.874409E0,1.9490296E0,1.7156544E0,4.769121E1,6.9018183E0,2.0644226E0,3.7739177E0,4.9799013E0,1.2453421E0,2.421071E2,6.176885E1,1.5731643E1,2.507532E2,4.2913513E0,3.927744E0,2.9789042E0,2.7166345E0,2.9648672E1,1.2732309E1,1.03763954E2,2.4726605E0,4.8027463E2,8.68707E1,1.18374535E2,1.9476166E1],"tree_param":{"num_deleted":"0","num_feature":"8","num_nodes":"91","size_leaf_vector":"1"}},{"base_weights":[-7.7042193E-3,-2.6675347E-2,1.09578066E-1,-6.756881E-2,6.784393E-2,1.03259E-3,2.456307E-1,3.4430206E-2,-9.555223E-2,1.387774E-2,1.8764158E-1,-1.9779469E-1,9.802764E-2,1.7211537E-1,6.7622244E-1,3.5001847E-1,-3.9823186E-3,-2.211975E-1,-3.7713837E-2,-9.037367E-2,1.2341029E-1,1.1850961E-1,6.255247E-1,1.471416E-2,-4.4387326E-1,2.3671892E-1,-3.915425E-1,2.1650511E-1,-1.4412792E-1,1.24530286E-1,1.0131674E0,8.3940893E-1,-1.22371145E-1,1.7013606E-1,-6.6786796E-2,-1.5491633E-1,-3.1008154E-1,-3.370798E-1,-1.8200168E-2,-2.515166E-1,1.0820054E-2,2.1190205E-1,-1.2929304E-1,4.0929228E-1,2.0566365E-2,9.1301715E-1,-2.6274115E-1,-1.5457678E-1,9.17079E-1,-4.8663175E-1,-1.7097512E-2,-5.554859E-2,4.1649735E-1,-1.6547744E-1,-1.5939178E-1,3.852675E-1,6.2215373E-2,2.9162192E-1,-2.7869084E-1,4.696875E-1,1.9500114E-1,4.3417555E-1,4.526687E-2,-7.822588E-2,2.1118395E-1,-1.0683899E-1,9.693333E-2,-4.326409E-2,4.3769583E-2,-6.117499E-2,1.01508714E-1,-9.7861566E-2,1.1884796E-1,8.0269165E-2,-1.3409695E-1,4.7528602E-2,-1.5137824E-2,-4.9724072E-2,-1.4301448E-1,2.4163747E-2,-1.3515851E-1,-1.1170595E-1,8.623058E-2,2.2242726E-1,-6.430636E-2,3.252002E-1,3.6829717E-2,4.941828E-2,-6.1202135E-2,4.6396032E-1,1.7037638E-1,-1.3047397E-1,6.1933406E-2,1.2297256E-1,-9.102177E-2,3.7705265E-2,3.7755734E-1,-1.6270861E-1,2.0631854E-3,-1.0276993E-1,9.236276E-2,2.2090073E-1,7.144998E-2,4.4672854E-2,-1.3774894E-1,7.541597E-2,2.8278074E-1,5.007536E-2,-1.5033518E-1,5.739295E-2,-1.3356662E-1,-1.1618464E-1,2.2281651E-1],"categories":[],"categories_nodes":[],"categories_segments":[],"categories_sizes":[],"default_left":[0,0,0,0,0,0,0,0,0,0,0,0,0,0,0,0,0,0,0,0,0,0,0,0,0,0,0,0,0,0,0,0,0,0,0,0,0,0,0,0,0,0,0,0,0,0,0,0,0,0,0,0,0,0,0,0,0,0,0,0,0,0,0,0,0,0,0,0,0,0,0,0,0,0,0,0,0,0,0,0,0,0,0,0,0,0,0,0,0,0,0,0,0,0,0,0,0,0,0,0,0,0,0,0,0,0,0,0,0,0,0,0,0],"id":9,"left_children":[1,3,5,7,9,11,13,15,17,19,21,23,25,27,29,31,33,35,37,39,41,43,45,47,49,51,53,55,-1,57,59,61,63,65,67,69,71,73,75,77,79,81,83,85,87,89,91,93,95,97,-1,99,101,103,-1,105,107,-1,109,-1,111,-1,-1,-1,-1,-1,-1,-1,-1,-1,-1,-1,-1,-1,-1,-1,-1,-1,-1,-1,-1,-1,-1,-1,-1,-1,-1,-1,-1,-1,-1,-1,-1,-1,-1,-1,-1,-1,-1,-1,-1,-1,-1,-1,-1,-1,-1,-1,-1,-1,-1,-1,-1],"loss_changes":[3.4789755E0,5.2054987E0,3.2150047E0,2.685512E0,2.6276808E0,2.3742385E0,2.941914E0,2.4627984E0,5.3524323E0,3.2264092E0,3.7484593E0,2.1175237E0,5.710541E0,2.5332708E0,2.4294353E0,5.1987906E0,2.0016098E0,1.3206806E0,2.951813E0,2.364601E0,3.1073647E0,3.1327152E0,4.577112E0,3.5986707E0,2.822473E-1,3.443536E0,5.010736E-1,2.038604E0,0E0,2.4420118E0,3.4892607E0,4.366057E0,1.5659372E0,4.021781E0,2.235481E0,3.3340728E0,1.2479486E0,2.1750038E0,2.7225907E0,1.0009441E0,2.9291148E0,4.625498E0,2.850637E0,5.2289314E0,2.7387016E0,1.9757557E0,4.8798826E-1,1.7970726E0,8.4677386E-1,4.6416378E-1,0E0,2.7835422E0,2.1301985E0,8.600461E-1,0E0,2.571576E0,2.5947273E0,0E0,4.8294818E-1,0E0,1.731128E0,0E0,0E0,0E0,0E0,0E0,0E0,0E0,0E0,0E0,0E0,0E0,0E0,0E0,0E0,0E0,0E0,0E0,0E0,0E0,0E0,0E0,0E0,0E0,0E0,0E0,0E0,0E0,0E0,0E0,0E0,0E0,0E0,0E0,0E0,0E0,0E0,0E0,0E0,0E0,0E0,0E0,0E0,0E0,0E0,0E0,0E0,0E0,0E0,0E0,0E0,0E0,0E0],"parents":[2147483647,0,0,1,1,2,2,3,3,4,4,5,5,6,6,7,7,8,8,9,9,10,10,11,11,12,12,13,13,14,14,15,15,16,16,17,17,18,18,19,19,20,20,21,21,22,22,23,23,24,24,25,25,26,26,27,27,29,29,30,30,31,31,32,32,33,33,34,34,35,35,36,36,37,37,38,38,39,39,40,40,41,41,42,42,43,43,44,44,45,45,46,46,47,47,48,48,49,49,51,51,52,52,53,53,55,55,56,56,58,58,60,60],"right_children":[2,4,6,8,10,12,14,16,18,20,22,24,26,28,30,32,34,36,38,40,42,44,46,48,50,52,54,56,-1,58,60,62,64,66,68,70,72,74,76,78,80,82,84,86,88,90,92,94,96,98,-1,100,102,104,-1,106,108,-1,110,-1,112,-1,-1,-1,-1,-1,-1,-1,-1,-1,-1,-1,-1,-1,-1,-1,-1,-1,-1,-1,-1,-1,-1,-1,-1,-1,-1,-1,-1,-1,-1,-1,-1,-1,-1,-1,-1,-1,-1,-1,-1,-1,-1,-1,-1,-1,-1,-1,-1,-1,-1,-1,-1],"split_conditions":[1.471231E0,7.9191077E-1,1.5400405E-1,-9.4788665E-1,-3.7371328E-1,-9.643476E-1,1.3580012E0,-7.9559493E-1,-3.927874E-1,-1.6678151E-1,1.2742392E0,-3.503576E-1,-8.080506E-2,9.429307E-1,1.1232108E-1,-3.487829E-1,-1.3223683E0,-3.407387E-1,-7.0573974E-1,1.3959905E0,9.252268E-1,-2.8933698E-1,1.7735404E0,-1.3828437E-1,1.0184407E0,8.400077E-3,-7.112186E-1,-9.127066E-3,-1.4412792E-1,-1.2734824E0,7.15775E-1,7.113041E-1,9.391395E-1,-1.2793474E0,-1.1826957E0,5.6002814E-1,1.9371516E0,-7.9559493E-1,-1.1141067E-1,-5.307843E-1,1.6460203E0,-8.0591995E-1,-1.0716646E0,-6.479257E-1,-5.307843E-1,2.5035942E-1,1.3580012E0,-9.5739365E-1,2.5632393E0,1.42315E0,-1.7097512E-2,-7.705568E-1,-1.1178787E0,2.1992364E0,-1.5939178E-1,8.3767754E-1,9.605007E-1,2.9162192E-1,5.245622E-1,4.696875E-1,6.2305063E-1,4.3417555E-1,4.526687E-2,-7.822588E-2,2.1118395E-1,-1.0683899E-1,9.693333E-2,-4.326409E-2,4.3769583E-2,-6.117499E-2,1.01508714E-1,-9.7861566E-2,1.1884796E-1,8.0269165E-2,-1.3409695E-1,4.7528602E-2,-1.5137824E-2,-4.9724072E-2,-1.4301448E-1,2.4163747E-2,-1.3515851E-1,-1.1170595E-1,8.623058E-2,2.2242726E-1,-6.430636E-2,3.252002E-1,3.6829717E-2,4.941828E-2,-6.1202135E-2,4.6396032E-1,1.7037638E-1,-1.3047397E-1,6.1933406E-2,1.2297256E-1,-9.102177E-2,3.7705265E-2,3.7755734E-1,-1.6270861E-1,2.0631854E-3,-1.0276993E-1,9.236276E-2,2.2090073E-1,7.144998E-2,4.4672854E-2,-1.3774894E-1,7.541597E-2,2.8278074E-1,5.007536E-2,-1.5033518E-1,5.739295E-2,-1.3356662E-1,-1.1618464E-1,2.2281651E-1],"split_indices":[6,7,1,1,5,5,0,5,0,6,1,0,1,7,7,6,7,7,1,7,6,5,7,1,7,3,5,4,0,4,3,2,4,0,1,1,2,5,0,6,1,0,0,2,6,0,0,4,6,3,0,1,1,6,0,0,0,0,1,0,4,0,0,0,0,0,0,0,0,0,0,0,0,0,0,0,0,0,0,0,0,0,0,0,0,0,0,0,0,0,0,0,0,0,0,0,0,0,0,0,0,0,0,0,0,0,0,0,0,0,0,0,0],"split_type":[0,0,0,0,0,0,0,0,0,0,0,0,0,0,0,0,0,0,0,0,0,0,0,0,0,0,0,0,0,0,0,0,0,0,0,0,0,0,0,0,0,0,0,0,0,0,0,0,0,0,0,0,0,0,0,0,0,0,0,0,0,0,0,0,0,0,0,0,0,0,0,0,0,0,0,0,0,0,0,0,0,0,0,0,0,0,0,0,0,0,0,0,0,0,0,0,0,0,0,0,0,0,0,0,0,0,0,0,0,0,0,0,0],"sum_hessian":[1.5612869E3,1.3445674E3,2.1671944E2,9.387188E2,4.0584854E2,1.21106155E2,9.561329E1,2.020436E2,7.3667523E2,2.8057263E2,1.2527592E2,3.9367878E1,8.173827E1,8.286533E1,1.2747955E1,2.1043453E1,1.8100014E2,2.3132713E2,5.053481E2,1.4384145E2,1.3673119E2,1.0929182E2,1.5984097E1,2.1629368E1,1.7738512E1,6.409667E1,1.7641598E1,7.8213036E1,4.652299E0,5.3529544E0,7.3950014E0,9.954135E0,1.1089317E1,4.752723E1,1.334729E2,1.3408348E2,9.724366E1,2.9928623E1,4.7541946E2,5.4912376E1,8.892907E1,1.01388405E2,3.5342777E1,2.6736181E1,8.255564E1,1.2054667E1,3.929429E0,1.8910334E1,2.7190335E0,1.5740973E1,1.9975379E0,2.4674356E1,3.942232E1,7.5742893E0,1.0067308E1,3.663957E1,4.1573467E1,1.2708813E0,4.082073E0,3.8689547E0,3.5260465E0,4.701527E0,5.2526073E0,1.0084865E1,1.0044526E0,1.04047365E1,3.7122494E1,9.80869E1,3.5386005E1,1.22501305E2,1.1582169E1,9.559922E1,1.6444396E0,4.3828793E0,2.5545746E1,7.281652E1,4.0260297E2,4.10239E1,1.3888479E1,7.797044E1,1.0958631E1,1.1157172E1,9.023123E1,2.458672E0,3.2884106E1,7.1399326E0,1.9596249E1,5.044183E1,3.211381E1,3.0232365E0,9.031431E0,2.9280143E0,1.0014148E0,3.5795274E0,1.5330807E1,1.231887E0,1.4871464E0,1.4054819E1,1.6861542E0,1.3818478E1,1.0855878E1,1.2991987E1,2.6430332E1,3.896305E0,3.677984E0,3.0712885E1,5.926685E0,3.5650978E1,5.9224887E0,1.0290357E0,3.0530374E0,1.8510793E0,1.6749673E0],"tree_param":{"num_deleted":"0","num_feature":"8","num_nodes":"113","size_leaf_vector":"1"}},{"base_weights":[-1.6697718E-2,-9.514183E-2,2.568106E-3,-1.1245996E-1,4.066657E-1,6.799498E-3,-3.102511E-1,-9.399977E-2,-1.5978056E-1,7.413616E-1,-1.2503912E-1,-2.5747022E-1,1.11809485E-2,-4.0268284E-1,1.5746514E-1,-1.8721047E-1,-2.5417427E-2,-4.6512257E-2,4.5230648E-1,-4.7740093E-1,3.2019305E-1,1.030904E-1,-2.8332062E-3,4.1329924E-2,-1.3886188E-1,2.1049668E-1,-1.0434122E-1,-3.1730592E-1,-7.3038496E-2,-1.0178176E-1,2.71606E-1,-1.2192166E-1,1.4813738E-1,-1.6140875E-1,-1.3312983E-2,-1.8084912E-1,2.487547E-1,1.6718614E-1,-1.7406808E-1,-7.793017E-2,2.7962081E-2,1.689069E-2,-1.0942363E-1,8.9752816E-2,-5.418794E-2,-1.0205033E-1,-1.1527195E-2,1.218002E-1,-5.2242544E-2,-1.1438747E-1,5.9084456E-2,3.0055588E-2,1.4999421E-1,-1.1069107E-1,1.6019182E-2,-2.9710613E-2,1.31521E-1,-6.7203864E-2,1.3010925E-2],"categories":[],"categories_nodes":[],"categories_segments":[],"categories_sizes":[],"default_left":[0,0,0,0,0,0,0,0,0,0,0,0,0,0,0,0,0,0,0,0,0,0,0,0,0,0,0,0,0,0,0,0,0,0,0,0,0,0,0,0,0,0,0,0,0,0,0,0,0,0,0,0,0,0,0,0,0,0,0],"id":10,"left_children":[1,3,5,7,9,11,13,15,-1,17,-1,19,21,23,25,27,29,31,-1,33,35,37,39,-1,-1,-1,-1,41,43,45,47,-1,-1,-1,-1,49,-1,51,53,55,57,-1,-1,-1,-1,-1,-1,-1,-1,-1,-1,-1,-1,-1,-1,-1,-1,-1,-1],"loss_changes":[2.3566759E0,2.7177002E0,1.6603322E0,2.2611094E0,3.1956387E0,1.4351985E0,7.8714633E-1,1.8277581E0,0E0,4.7836018E0,0E0,2.7212415E0,1.5688567E0,5.276258E-1,1.201279E0,1.7793522E0,3.7997956E0,1.1378069E0,0E0,3.7105966E-1,1.7242298E0,2.8918219E0,2.448138E0,0E0,0E0,0E0,0E0,1.0205712E0,2.6943548E0,1.9960241E0,2.124587E0,0E0,0E0,0E0,0E0,3.7283188E-1,0E0,2.879571E0,1.3832738E0,3.3981295E0,2.9245973E0,0E0,0E0,0E0,0E0,0E0,0E0,0E0,0E0,0E0,0E0,0E0,0E0,0E0,0E0,0E0,0E0,0E0,0E0],"parents":[2147483647,0,0,1,1,2,2,3,3,4,4,5,5,6,6,7,7,9,9,11,11,12,12,13,13,14,14,15,15,16,16,17,17,19,19,20,20,21,21,22,22,27,27,28,28,29,29,30,30,35,35,37,37,38,38,39,39,40,40],"right_children":[2,4,6,8,10,12,14,16,-1,18,-1,20,22,24,26,28,30,32,-1,34,36,38,40,-1,-1,-1,-1,42,44,46,48,-1,-1,-1,-1,50,-1,52,54,56,58,-1,-1,-1,-1,-1,-1,-1,-1,-1,-1,-1,-1,-1,-1,-1,-1,-1,-1],"split_conditions":[-6.9897485E-1,1.985516E0,2.1575766E0,1.7426344E0,1.3959905E0,-1.9543861E0,1.0932405E0,-4.5808962E-1,-1.5978056E-1,8.6742073E-1,-1.2503912E-1,1.8352337E0,-1.0860816E0,-1.4688623E0,-3.5795897E-2,7.328842E-2,1.5219865E-2,3.069618E-1,4.5230648E-1,1.3981895E0,6.2305063E-1,5.653809E-1,-2.7158746E-1,4.1329924E-2,-1.3886188E-1,2.1049668E-1,-1.0434122E-1,-1.1331003E0,-5.267763E-1,-8.900782E-1,1.6532323E0,-1.2192166E-1,1.4813738E-1,-1.6140875E-1,-1.3312983E-2,2.5632393E0,2.487547E-1,-1.2010401E0,-4.7008252E-1,1.9014242E0,-1.1331003E0,1.689069E-2,-1.0942363E-1,8.9752816E-2,-5.418794E-2,-1.0205033E-1,-1.1527195E-2,1.218002E-1,-5.2242544E-2,-1.1438747E-1,5.9084456E-2,3.0055588E-2,1.4999421E-1,-1.1069107E-1,1.6019182E-2,-2.9710613E-2,1.31521E-1,-6.7203864E-2,1.3010925E-2],"split_indices":[3,0,5,1,7,1,1,5,0,7,0,6,1,2,2,1,6,4,0,5,4,7,1,0,0,0,0,5,0,2,6,0,0,0,0,6,0,1,2,2,5,0,0,0,0,0,0,0,0,0,0,0,0,0,0,0,0,0,0],"split_type":[0,0,0,0,0,0,0,0,0,0,0,0,0,0,0,0,0,0,0,0,0,0,0,0,0,0,0,0,0,0,0,0,0,0,0,0,0,0,0,0,0,0,0,0,0,0,0,0,0,0,0,0,0,0,0,0,0,0,0],"sum_hessian":[1.5582183E3,3.0646304E2,1.2517552E3,2.9698938E2,9.473658E0,1.2360143E3,1.5740855E1,2.856617E2,1.1327663E1,6.806757E0,2.6669002E0,1.921617E1,1.2167982E3,1.3259508E1,2.481347E0,1.2035575E2,1.6530595E2,3.8193355E0,2.9874218E0,1.4043157E1,5.1730123E0,1.6014674E2,1.0566514E3,1.1995796E0,1.2059929E1,1.0075299E0,1.4738173E0,5.542335E1,6.49324E1,1.3202089E2,3.328507E1,2.441131E0,1.3782043E0,1.2105728E1,1.9374285E0,2.9317384E0,2.2412739E0,1.303896E2,2.9757149E1,3.068473E2,7.4980414E2,6.223504E0,4.919985E1,1.4160736E1,5.0771667E1,2.6803339E1,1.05217545E2,2.564283E1,7.6422405E0,1.9094305E0,1.0223078E0,1.0962089E2,2.0768711E1,1.5690639E1,1.406651E1,2.9557385E2,1.127343E1,4.2426567E1,7.0737756E2],"tree_param":{"num_deleted":"0","num_feature":"8","num_nodes":"59","size_leaf_vector":"1"}},{"base_weights":[-1.0087206E-2,-3.0406124E-3,-2.4200724E-1,1.0806742E-2,-1.1669353E-1,-3.348099E-1,5.672813E-2,7.605287E-3,6.1012787E-1,-2.1436873E-1,5.7221306E-3,-3.899292E-1,-3.454851E-2,-1.0522302E-1,5.239076E-1,1.755201E-2,-1.7469738E-1,4.418139E-1,7.017375E-2,-3.4504282E-1,-8.471766E-2,7.766316E-1,-5.6144558E-2,-5.023063E-1,-9.642555E-2,-1.3132592E-1,4.7030863E-1,-2.7472657E-1,1.7407763E-1,2.0373607E-1,4.0450715E-2,3.3512437E-1,9.192725E-3,-2.1542776E-1,5.338188E-1,3.505207E-1,-1.3553703E-1,-2.0905393E-1,-1.6333558E-1,7.369304E-1,-1.7690977E-1,4.0055385E-1,-7.9260685E-2,-1.0326671E-1,6.4155626E-1,1.2776336E-2,-1.642387E-1,4.9639583E-1,-3.5915032E-1,3.024971E-1,-9.283427E-2,2.1037623E-1,-1.4622469E-1,3.4795803E-1,7.155259E-2,-2.6917385E-2,7.3781917E-3,-1.137535E-1,-2.9439734E-2,-9.8416485E-2,3.111146E-1,-7.962748E-2,1.7445633E-1,-1.4948835E-2,3.7931463E-1,9.376032E-2,-9.1450304E-2,-9.211183E-2,6.106874E-2,-1.4655317E-1,-1.8112551E-2,3.2811615E-1,-9.643035E-2,1.9073416E-1,4.0851504E-2,-1.4388767E-1,2.3404619E-2,-9.641019E-2,2.0759384E-1],"categories":[],"categories_nodes":[],"categories_segments":[],"categories_sizes":[],"default_left":[0,0,0,0,0,0,0,0,0,0,0,0,0,0,0,0,0,0,0,0,0,0,0,0,0,0,0,0,0,0,0,0,0,0,0,0,0,0,0,0,0,0,0,0,0,0,0,0,0,0,0,0,0,0,0,0,0,0,0,0,0,0,0,0,0,0,0,0,0,0,0,0,0,0,0,0,0,0,0],"id":11,"left_children":[1,3,5,7,9,11,13,15,17,19,21,23,25,27,29,31,33,-1,35,37,39,41,43,45,47,-1,49,51,-1,-1,-1,53,55,57,59,-1,-1,61,-1,63,65,-1,67,69,71,-1,-1,73,75,-1,-1,77,-1,-1,-1,-1,-1,-1,-1,-1,-1,-1,-1,-1,-1,-1,-1,-1,-1,-1,-1,-1,-1,-1,-1,-1,-1,-1,-1],"loss_changes":[2.554237E0,2.3907607E0,1.2967196E0,2.5939012E0,1.9739208E0,5.7090473E-1,9.4632965E-1,2.4476693E0,3.2424016E0,1.5258827E0,3.5821118E0,9.3233824E-1,1.544019E0,1.2724811E0,1.0163915E-1,3.3930457E0,2.1305175E0,0E0,3.6623178E0,1.1170216E0,3.7209632E0,2.7729812E0,2.3549404E0,5.4654884E-1,1.6533074E0,0E0,1.738797E0,9.649986E-1,0E0,0E0,0E0,2.3355474E0,1.9027356E0,1.245023E0,2.1116443E0,0E0,0E0,1.429337E0,0E0,2.127765E0,2.814214E0,0E0,2.6524228E-1,1.0622356E0,2.329639E0,0E0,0E0,8.052498E-2,4.135968E-1,0E0,0E0,1.0537448E0,0E0,0E0,0E0,0E0,0E0,0E0,0E0,0E0,0E0,0E0,0E0,0E0,0E0,0E0,0E0,0E0,0E0,0E0,0E0,0E0,0E0,0E0,0E0,0E0,0E0,0E0,0E0],"parents":[2147483647,0,0,1,1,2,2,3,3,4,4,5,5,6,6,7,7,8,8,9,9,10,10,11,11,12,12,13,13,14,14,15,15,16,16,18,18,19,19,20,20,21,21,22,22,23,23,24,24,26,26,27,27,31,31,32,32,33,33,34,34,37,37,39,39,40,40,42,42,43,43,44,44,47,47,48,48,51,51],"right_children":[2,4,6,8,10,12,14,16,18,20,22,24,26,28,30,32,34,-1,36,38,40,42,44,46,48,-1,50,52,-1,-1,-1,54,56,58,60,-1,-1,62,-1,64,66,-1,68,70,72,-1,-1,74,76,-1,-1,78,-1,-1,-1,-1,-1,-1,-1,-1,-1,-1,-1,-1,-1,-1,-1,-1,-1,-1,-1,-1,-1,-1,-1,-1,-1,-1,-1],"split_conditions":[1.7735404E0,1.2742392E0,1.42315E0,1.2558948E0,1.6790403E0,2.0000703E0,1.2083802E0,2.3812377E0,-5.307843E-1,1.8783104E-1,-6.4526834E-3,1.2463437E0,-2.7158746E-1,1.0979542E0,2.9342195E-1,-1.2174766E0,1.6237459E0,4.418139E-1,-1.0487239E0,9.9399793E-1,3.3885098E-1,6.2305063E-1,1.5679682E0,-1.7800878E0,1.5344199E0,-1.3132592E-1,4.1938725E-1,-8.0591995E-1,1.7407763E-1,2.0373607E-1,4.0450715E-2,-1.3575077E0,-1.2011873E0,-3.596409E-1,-1.897188E-1,3.505207E-1,-1.3553703E-1,9.2923665E-1,-1.6333558E-1,1.4344475E0,-9.496239E-1,4.0055385E-1,-5.307843E-1,-1.0487239E0,1.3959905E0,1.2776336E-2,-1.642387E-1,-2.3983915E-1,-1.6678151E-1,3.024971E-1,-9.283427E-2,-1.3950257E0,-1.4622469E-1,3.4795803E-1,7.155259E-2,-2.6917385E-2,7.3781917E-3,-1.137535E-1,-2.9439734E-2,-9.8416485E-2,3.111146E-1,-7.962748E-2,1.7445633E-1,-1.4948835E-2,3.7931463E-1,9.376032E-2,-9.1450304E-2,-9.211183E-2,6.106874E-2,-1.4655317E-1,-1.8112551E-2,3.2811615E-1,-9.643035E-2,1.9073416E-1,4.0851504E-2,-1.4388767E-1,2.3404619E-2,-9.641019E-2,2.0759384E-1],"split_indices":[7,1,3,1,1,7,0,6,6,7,0,0,1,2,1,5,0,0,5,0,7,4,2,2,0,0,1,0,0,0,0,0,0,1,7,0,0,0,0,1,2,0,6,5,7,0,0,2,6,0,0,2,0,0,0,0,0,0,0,0,0,0,0,0,0,0,0,0,0,0,0,0,0,0,0,0,0,0,0],"split_type":[0,0,0,0,0,0,0,0,0,0,0,0,0,0,0,0,0,0,0,0,0,0,0,0,0,0,0,0,0,0,0,0,0,0,0,0,0,0,0,0,0,0,0,0,0,0,0,0,0,0,0,0,0,0,0,0,0,0,0,0,0,0,0,0,0,0,0,0,0,0,0,0,0,0,0,0,0,0,0],"sum_hessian":[1.5623953E3,1.5173069E3,4.508832E1,1.3533242E3,1.6398273E2,3.4309315E1,1.0779006E1,1.3471407E3,6.1834702E0,9.079023E1,7.31925E1,2.873565E1,5.5736656E0,8.5795965E0,2.19941E0,1.2782985E3,6.8842285E1,1.7154826E0,4.4679875E0,4.438932E1,4.6400906E1,4.5791564E0,6.8613335E1,2.0265104E1,8.470546E0,3.1727018E0,2.4009635E0,7.359088E0,1.2205083E0,1.0393099E0,1.1601E0,3.1782425E1,1.246516E3,6.5758E1,3.084277E0,1.0404255E0,3.427562E0,2.7609278E1,1.6780045E1,3.9755957E0,4.242531E1,2.432042E0,2.1471148E0,6.507052E1,3.5428202E0,1.5552237E0,1.8709879E1,2.3280463E0,6.142499E0,1.2472568E0,1.1537069E0,2.2463868E0,5.112701E0,2.1787982E0,2.9603628E1,1.672832E2,1.0792328E3,2.6512482E1,3.9245525E1,1.2653072E0,1.8189696E0,2.6391712E1,1.2175653E0,1.9590124E0,2.0165832E0,8.491894E0,3.3933414E1,1.141863E0,1.0052516E0,5.4780693E0,5.959245E1,2.3184552E0,1.224365E0,1.127006E0,1.2010404E0,4.7393045E0,1.4031947E0,1.2257434E0,1.0206435E0],"tree_param":{"num_deleted":"0","num_feature":"8","num_nodes":"79","size_leaf_vector":"1"}},{"base_weights":[1.0297619E-2,-2.3065267E-2,8.037744E-2,9.050619E-2,-3.688394E-2,1.3311532E-1,-2.95405E-2,1.5050192E-1,-2.920113E-1,-2.7093887E-1,-2.6276704E-2,6.823575E-2,2.8963545E-1,-9.043064E-2,1.4609492E-1,-1.4832011E-1,1.9149056E-1,-1.5574569E-1,1.5473759E-1,2.734061E-1,-3.421261E-1,3.3710545E-1,-3.089031E-2,9.247951E-2,-3.2634062E-1,3.1802773E-1,-1.366136E-1,-1.5630388E-1,3.6776308E-2,-3.5723567E-1,2.3798986E-1,4.0868402E-1,1.6029239E-1,3.0787194E-1,-2.6225483E-1,4.9726185E-1,-9.049745E-2,-4.023921E-1,1.02126785E-1,-1.3294376E-1,6.868246E-1,1.3860394E-3,-8.6591825E-2,7.540803E-2,1.0151252E0,1.1633113E-1,-4.384388E-1,9.0031785E-1,2.7833042E-1,-2.9551437E-1,7.783633E-2,4.5577675E-1,-1.4244369E-1,1.7375859E-2,-1.4315872E-1,4.9611837E-1,-1.2081112E-1,-7.986295E-2,6.49313E-2,3.6240403E-2,-1.2673013E-1,2.9800672E-3,2.4504441E-1,-3.6937438E-2,-1.4189065E-1,-1.2943879E-1,3.010813E-1,1.03302345E-1,4.4027007E-1,-1.0412352E-2,4.9193263E-2,-2.8121993E-2,2.9352924E-1,-7.686573E-3,4.7432348E-2,4.172915E-1,3.1927623E-2,1.9415632E-1,-1.0649069E-1,-1.5494534E-1,3.325931E-2,-2.0225044E-2,4.3486658E-1,1.01080045E-1,-2.8265852E-2,-1.278745E-1,7.336524E-3,1.1319059E-1,-3.9357726E-2,-9.158787E-2,2.7766693E-1,-6.5859325E-2,2.203924E-1,2.1522881E-2,2.1486825E-1,-1.21033266E-1,5.768107E-2],"categories":[],"categories_nodes":[],"categories_segments":[],"categories_sizes":[],"default_left":[0,0,0,0,0,0,0,0,0,0,0,0,0,0,0,0,0,0,0,0,0,0,0,0,0,0,0,0,0,0,0,0,0,0,0,0,0,0,0,0,0,0,0,0,0,0,0,0,0,0,0,0,0,0,0,0,0,0,0,0,0,0,0,0,0,0,0,0,0,0,0,0,0,0,0,0,0,0,0,0,0,0,0,0,0,0,0,0,0,0,0,0,0,0,0,0,0],"id":12,"left_children":[1,3,5,7,9,11,13,15,17,19,21,23,25,27,29,-1,31,-1,33,35,37,39,41,43,45,47,-1,49,51,53,55,-1,57,-1,59,61,-1,63,65,-1,67,69,71,73,75,77,79,81,83,85,87,89,91,-1,-1,93,95,-1,-1,-1,-1,-1,-1,-1,-1,-1,-1,-1,-1,-1,-1,-1,-1,-1,-1,-1,-1,-1,-1,-1,-1,-1,-1,-1,-1,-1,-1,-1,-1,-1,-1,-1,-1,-1,-1,-1,-1],"loss_changes":[3.6764462E0,1.675576E0,2.943602E0,2.7031493E0,2.3530357E0,3.4621224E0,1.7803707E0,2.7597737E0,1.7090079E0,1.6864781E0,1.5369399E0,2.3614802E0,2.2636623E0,1.0391076E0,2.0702739E0,0E0,3.2705724E0,0E0,2.515079E0,8.335651E-1,1.0262918E0,3.442224E0,1.6182544E0,3.5521274E0,7.619966E-1,1.9934645E0,0E0,2.6774206E0,3.2851064E0,3.7756258E-1,3.477021E0,0E0,2.3126714E0,0E0,3.5638094E-1,6.4589655E-1,0E0,5.843935E-1,2.9310193E0,0E0,1.7227373E0,3.355636E0,2.6056125E0,1.9029567E0,1.2539358E0,1.1518049E0,5.5638266E-1,3.1531534E0,2.0475898E0,2.1555195E0,1.9998155E0,4.9609857E0,2.2435465E0,0E0,0E0,1.971252E0,1.5147165E0,0E0,0E0,0E0,0E0,0E0,0E0,0E0,0E0,0E0,0E0,0E0,0E0,0E0,0E0,0E0,0E0,0E0,0E0,0E0,0E0,0E0,0E0,0E0,0E0,0E0,0E0,0E0,0E0,0E0,0E0,0E0,0E0,0E0,0E0,0E0,0E0,0E0,0E0,0E0,0E0],"parents":[2147483647,0,0,1,1,2,2,3,3,4,4,5,5,6,6,7,7,8,8,9,9,10,10,11,11,12,12,13,13,14,14,16,16,18,18,19,19,20,20,21,21,22,22,23,23,24,24,25,25,27,27,28,28,29,29,30,30,32,32,34,34,35,35,37,37,38,38,40,40,41,41,42,42,43,43,44,44,45,45,46,46,47,47,48,48,49,49,50,50,51,51,52,52,55,55,56,56],"right_children":[2,4,6,8,10,12,14,16,18,20,22,24,26,28,30,-1,32,-1,34,36,38,40,42,44,46,48,-1,50,52,54,56,-1,58,-1,60,62,-1,64,66,-1,68,70,72,74,76,78,80,82,84,86,88,90,92,-1,-1,94,96,-1,-1,-1,-1,-1,-1,-1,-1,-1,-1,-1,-1,-1,-1,-1,-1,-1,-1,-1,-1,-1,-1,-1,-1,-1,-1,-1,-1,-1,-1,-1,-1,-1,-1,-1,-1,-1,-1,-1,-1],"split_conditions":[5.071715E-1,-9.643476E-1,5.0964266E-1,9.4159293E-1,-8.7997127E-1,-6.596571E-2,5.544263E-1,-1.5188807E0,1.7219922E-1,-7.1828854E-1,-2.0609496E0,2.0927072E0,2.0732002E0,9.305863E-1,2.356499E-3,-1.4832011E-1,-1.4466319E0,-1.5574569E-1,-8.162415E-1,1.2289547E0,1.5713172E0,-3.7371328E-1,3.8567364E-1,2.0391116E0,-1.2902253E0,-4.4529263E-2,-1.366136E-1,6.2305063E-1,1.2240976E0,1.0606842E0,1.3580012E0,4.0868402E-1,-1.3910049E0,3.0787194E-1,-3.869886E-2,5.969764E-1,-9.049745E-2,-9.5739365E-1,9.979174E-1,-1.3294376E-1,-3.9021498E-1,1.2552284E0,1.8037827E0,2.63341E-1,1.4715005E0,3.0442864E-1,-1.7870557E-1,-5.424659E-1,1.2449706E0,1.4417313E0,8.9946854E-1,9.979174E-1,2.017235E0,1.7375859E-2,-1.4315872E-1,8.9946854E-1,1.0654025E0,-7.986295E-2,6.49313E-2,3.6240403E-2,-1.2673013E-1,2.9800672E-3,2.4504441E-1,-3.6937438E-2,-1.4189065E-1,-1.2943879E-1,3.010813E-1,1.03302345E-1,4.4027007E-1,-1.0412352E-2,4.9193263E-2,-2.8121993E-2,2.9352924E-1,-7.686573E-3,4.7432348E-2,4.172915E-1,3.1927623E-2,1.9415632E-1,-1.0649069E-1,-1.5494534E-1,3.325931E-2,-2.0225044E-2,4.3486658E-1,1.01080045E-1,-2.8265852E-2,-1.278745E-1,7.336524E-3,1.1319059E-1,-3.9357726E-2,-9.158787E-2,2.7766693E-1,-6.5859325E-2,2.203924E-1,2.1522881E-2,2.1486825E-1,-1.21033266E-1,5.768107E-2],"split_indices":[0,5,2,1,5,2,5,2,0,7,0,0,5,1,1,0,2,0,2,2,4,5,5,0,2,2,0,4,1,5,0,0,0,0,7,2,0,4,2,0,1,4,1,7,7,1,2,5,7,2,2,2,6,0,0,2,2,0,0,0,0,0,0,0,0,0,0,0,0,0,0,0,0,0,0,0,0,0,0,0,0,0,0,0,0,0,0,0,0,0,0,0,0,0,0,0,0],"split_type":[0,0,0,0,0,0,0,0,0,0,0,0,0,0,0,0,0,0,0,0,0,0,0,0,0,0,0,0,0,0,0,0,0,0,0,0,0,0,0,0,0,0,0,0,0,0,0,0,0,0,0,0,0,0,0,0,0,0,0,0,0,0,0,0,0,0,0,0,0,0,0,0,0,0,0,0,0,0,0,0,0,0,0,0,0,0,0,0,0,0,0,0,0,0,0,0,0],"sum_hessian":[1.5706382E3,1.0645222E3,5.0611603E2,1.1487228E2,9.4964996E2,3.4187543E2,1.6424057E2,9.982226E1,1.5050016E1,4.0107662E1,9.095423E2,2.4270648E2,9.916896E1,1.2231941E2,4.1921165E1,5.304292E0,9.451797E1,9.869824E0,5.1801925E0,4.3099847E0,3.5797676E1,1.0499519E1,8.990428E2,2.2937851E2,1.33279705E1,9.608048E1,3.088476E0,8.043695E1,4.188246E1,6.026291E0,3.5894875E1,1.3458589E0,9.317211E1,1.2036167E0,3.9765756E0,3.1997201E0,1.1102647E0,3.1604528E1,4.193147E0,3.1668584E0,7.332661E0,5.698292E2,3.2921353E2,2.2627356E2,3.1049538E0,2.685453E0,1.0642518E1,4.7485166E0,9.133197E1,5.028021E1,3.0156742E1,1.2085207E1,2.9797255E1,1.466889E0,4.559402E0,2.0653572E1,1.52413E1,1.0403264E1,8.2768845E1,1.2450248E0,2.731551E0,1.6755453E0,1.5241749E0,6.9295006E0,2.4675028E1,2.961564E0,1.2315829E0,6.0985084E0,1.2341527E0,4.6695572E2,1.0287352E2,3.2792456E2,1.2889584E0,1.0216014E2,1.2411342E2,1.8210315E0,1.2839223E0,1.0874213E0,1.5980315E0,9.370844E0,1.2716737E0,2.0368757E0,2.7116408E0,7.900058E1,1.2331391E1,3.54598E1,1.4820408E1,1.2065724E1,1.8091019E1,4.7462115E0,7.338996E0,2.8079077E1,1.7181786E0,7.5066056E0,1.3146967E1,7.8584695E0,7.3828306E0],"tree_param":{"num_deleted":"0","num_feature":"8","num_nodes":"97","size_leaf_vector":"1"}},{"base_weights":[1.1618165E-2,8.105743E-2,-1.4873332E-2,3.8672805E-2,3.7281436E-1,8.223548E-2,-4.010458E-2,-2.3760678E-2,2.3073845E-1,1.2892886E-1,6.193818E-1,6.350831E-2,6.0604507E-1,-1.2325902E-1,-1.2952011E-2,-9.943784E-2,1.0264663E-1,3.6899748E-1,-3.805266E-1,6.8883175E-1,-1.883568E-1,-3.8442545E-2,7.25858E-1,5.1772047E-2,9.105778E-1,4.1832298E-1,2.4288818E-1,-1.783577E-1,5.9601806E-2,-3.4908555E-2,1.4196108E-1,-2.0182377E-1,2.2575911E-2,1.5939163E-1,-3.6736527E-1,7.6629627E-1,2.2911914E-1,9.154052E-2,-1.6136235E-1,2.3942586E-2,1.249461E0,1.91604E-2,-1.5211135E-1,2.101633E-1,-1.2844908E-1,3.5699394E-1,1.0424558E0,7.097233E-2,-4.0633646E-1,5.8362123E-2,3.5295472E-1,-8.704377E-2,2.4959542E-1,-2.4720486E-1,2.749944E-2,5.05401E-1,-2.2656205E-1,1.4737759E-2,-1.3069527E-1,3.766852E-1,-3.0362489E-2,-7.043125E-2,4.588932E-2,-2.127533E-2,8.2149975E-2,2.4606732E-3,1.1269072E-1,-1.926634E-2,-1.528421E-1,2.5654006E-1,-9.547454E-2,-2.2234287E-2,1.0864325E-1,-1.1956919E-1,1.5965311E-1,1.8248117E-1,-1.2977037E-1,5.197873E-1,1.3199383E-1,7.1929045E-2,-1.3479051E-1,1.770089E-1,-1.2416119E-1,4.987854E-1,1.700284E-1,1.4869188E-2,3.1039E-1,-1.5163045E-1,4.6257652E-2,1.7306753E-1,-1.3134566E-1,1.7471802E-1,-7.784677E-2,3.2253894E-1,-1.7520929E-2,2.0048921E-1,-1.2782797E-1,-2.4114296E-2,-1.3638239E-1,2.4409084E-2,-3.0972743E-2,-8.7751344E-2,-1.70696E-2,1.559518E-1,-1.02706105E-1,5.036389E-2,-5.428264E-2],"categories":[],"categories_nodes":[],"categories_segments":[],"categories_sizes":[],"default_left":[0,0,0,0,0,0,0,0,0,0,0,0,0,0,0,0,0,0,0,0,0,0,0,0,0,0,0,0,0,0,0,0,0,0,0,0,0,0,0,0,0,0,0,0,0,0,0,0,0,0,0,0,0,0,0,0,0,0,0,0,0,0,0,0,0,0,0,0,0,0,0,0,0,0,0,0,0,0,0,0,0,0,0,0,0,0,0,0,0,0,0,0,0,0,0,0,0,0,0,0,0,0,0,0,0,0,0],"id":13,"left_children":[1,3,5,7,9,11,13,15,17,19,21,23,25,27,29,31,33,35,37,39,41,43,45,47,49,-1,51,53,55,57,59,61,63,65,67,69,71,73,-1,75,77,79,-1,-1,-1,81,83,85,87,-1,-1,89,-1,91,93,95,97,99,101,103,105,-1,-1,-1,-1,-1,-1,-1,-1,-1,-1,-1,-1,-1,-1,-1,-1,-1,-1,-1,-1,-1,-1,-1,-1,-1,-1,-1,-1,-1,-1,-1,-1,-1,-1,-1,-1,-1,-1,-1,-1,-1,-1,-1,-1,-1,-1],"loss_changes":[2.892238E0,5.354349E0,2.7926822E0,4.564585E0,3.2248344E0,2.2678995E0,2.0402365E0,2.7636914E0,8.030848E0,5.2621655E0,1.9235725E0,2.2206953E0,1.9513476E0,2.2522633E0,2.32753E0,2.2601318E0,2.9465208E0,4.084095E0,1.3650408E0,3.9454308E0,1.2811668E0,1.6593332E0,2.354044E0,2.0172443E0,3.5326815E-1,0E0,1.3721312E0,2.4334517E0,6.7820826E0,2.849841E0,3.4481292E0,1.1846614E0,1.9757538E0,3.1785026E0,4.8282325E-1,2.154069E0,2.3711302E0,1.3530114E0,0E0,1.8364888E0,1.4930172E0,1.410631E0,0E0,0E0,0E0,2.4542942E0,2.609994E0,4.4424434E0,5.913217E-1,0E0,0E0,1.4616792E0,0E0,1.4597516E0,4.005582E0,3.432218E0,1.0476274E0,3.1159449E0,2.4257383E0,3.8881354E0,1.5205579E0,0E0,0E0,0E0,0E0,0E0,0E0,0E0,0E0,0E0,0E0,0E0,0E0,0E0,0E0,0E0,0E0,0E0,0E0,0E0,0E0,0E0,0E0,0E0,0E0,0E0,0E0,0E0,0E0,0E0,0E0,0E0,0E0,0E0,0E0,0E0,0E0,0E0,0E0,0E0,0E0,0E0,0E0,0E0,0E0,0E0,0E0],"parents":[2147483647,0,0,1,1,2,2,3,3,4,4,5,5,6,6,7,7,8,8,9,9,10,10,11,11,12,12,13,13,14,14,15,15,16,16,17,17,18,18,19,19,20,20,21,21,22,22,23,23,24,24,26,26,27,27,28,28,29,29,30,30,31,31,32,32,33,33,34,34,35,35,36,36,37,37,39,39,40,40,41,41,45,45,46,46,47,47,48,48,51,51,53,53,54,54,55,55,56,56,57,57,58,58,59,59,60,60],"right_children":[2,4,6,8,10,12,14,16,18,20,22,24,26,28,30,32,34,36,38,40,42,44,46,48,50,-1,52,54,56,58,60,62,64,66,68,70,72,74,-1,76,78,80,-1,-1,-1,82,84,86,88,-1,-1,90,-1,92,94,96,98,100,102,104,106,-1,-1,-1,-1,-1,-1,-1,-1,-1,-1,-1,-1,-1,-1,-1,-1,-1,-1,-1,-1,-1,-1,-1,-1,-1,-1,-1,-1,-1,-1,-1,-1,-1,-1,-1,-1,-1,-1,-1,-1,-1,-1,-1,-1,-1,-1],"split_conditions":[-6.495995E-1,-7.634901E-1,-6.9897485E-1,6.98601E-1,-1.14208825E-1,1.7735404E0,8.400077E-3,6.2305063E-1,9.429307E-1,-1.0958384E0,-9.643476E-1,3.1092434E0,-7.791344E-2,8.0755526E-1,1.4562597E0,-5.2168876E-1,2.754296E-1,-6.413048E-1,9.439293E-1,8.400077E-3,-4.5808962E-1,-7.255266E-1,-7.0096195E-1,1.9207547E0,3.681111E-2,4.1832298E-1,1.4798406E0,1.1694607E0,1.5669422E0,3.012973E-1,2.63341E-1,2.3812377E0,3.3885098E-1,1.3254467E-1,-9.4788665E-1,7.9191077E-1,-9.127066E-3,1.3959905E0,-1.6136235E-1,-6.9897485E-1,-9.127066E-3,1.6532323E0,-1.5211135E-1,2.101633E-1,-1.2844908E-1,1.3254467E-1,-8.162415E-1,1.822496E0,5.715702E-1,5.8362123E-2,3.5295472E-1,-7.112186E-1,2.4959542E-1,-2.0057507E0,-5.4910785E-1,1.2892944E0,1.9044476E0,5.0866365E-1,-8.907919E-2,2.0927072E0,7.972832E-1,-7.043125E-2,4.588932E-2,-2.127533E-2,8.2149975E-2,2.4606732E-3,1.1269072E-1,-1.926634E-2,-1.528421E-1,2.5654006E-1,-9.547454E-2,-2.2234287E-2,1.0864325E-1,-1.1956919E-1,1.5965311E-1,1.8248117E-1,-1.2977037E-1,5.197873E-1,1.3199383E-1,7.1929045E-2,-1.3479051E-1,1.770089E-1,-1.2416119E-1,4.987854E-1,1.700284E-1,1.4869188E-2,3.1039E-1,-1.5163045E-1,4.6257652E-2,1.7306753E-1,-1.3134566E-1,1.7471802E-1,-7.784677E-2,3.2253894E-1,-1.7520929E-2,2.0048921E-1,-1.2782797E-1,-2.4114296E-2,-1.3638239E-1,2.4409084E-2,-3.0972743E-2,-8.7751344E-2,-1.70696E-2,1.559518E-1,-1.02706105E-1,5.036389E-2,-5.428264E-2],"split_indices":[0,0,3,2,7,7,3,4,7,7,5,6,0,5,0,2,2,4,2,3,5,0,0,0,7,0,2,7,5,5,7,6,7,5,1,7,4,7,0,3,4,6,0,0,0,5,2,0,2,0,0,5,0,1,0,2,5,1,0,0,1,0,0,0,0,0,0,0,0,0,0,0,0,0,0,0,0,0,0,0,0,0,0,0,0,0,0,0,0,0,0,0,0,0,0,0,0,0,0,0,0,0,0,0,0,0,0],"split_type":[0,0,0,0,0,0,0,0,0,0,0,0,0,0,0,0,0,0,0,0,0,0,0,0,0,0,0,0,0,0,0,0,0,0,0,0,0,0,0,0,0,0,0,0,0,0,0,0,0,0,0,0,0,0,0,0,0,0,0,0,0,0,0,0,0,0,0,0,0,0,0,0,0,0,0,0,0,0,0,0,0,0,0,0,0,0,0,0,0,0,0,0,0,0,0,0,0,0,0,0,0,0,0,0,0,0,0],"sum_hessian":[1.5705974E3,4.3315524E2,1.1374423E3,3.792E2,5.3955254E1,2.3411859E2,9.033236E2,2.8683633E2,9.236366E1,2.789076E1,2.6064495E1,2.2711987E2,6.998715E0,2.2148592E2,6.818377E2,1.795545E2,1.0728182E2,7.564927E1,1.6714397E1,9.664732E0,1.8226028E1,3.72011E0,2.2344385E1,2.2506273E2,2.0571556E0,1.3116368E0,5.687078E0,1.7022055E2,5.126536E1,5.9787305E2,8.396464E1,9.727425E1,8.2280266E1,9.631455E1,1.0967275E1,1.8532578E1,5.7116688E1,4.2829957E0,1.2431401E1,4.8982563E0,4.766475E0,1.1607432E1,6.618596E0,1.0091025E0,2.7110076E0,1.1303E1,1.1041384E1,2.168204E2,8.242321E0,1.0260484E0,1.0311073E0,4.1916986E0,1.4953792E0,1.2740889E2,4.2811665E1,1.9742876E1,3.1522486E1,3.9433508E2,2.0353798E2,3.5044353E1,4.892028E1,8.9318085E1,7.9561577E0,6.0489628E1,2.179064E1,5.7294445E1,3.9020103E1,3.9637537E0,7.003521E0,1.7324982E1,1.2075968E0,1.75512E1,3.9565487E1,2.072883E0,2.210113E0,2.0025637E0,2.8956926E0,2.2707176E0,2.4957578E0,8.223228E0,3.3842034E0,8.859364E0,2.443637E0,3.7097945E0,7.3315897E0,2.1313686E2,3.6835446E0,7.087568E0,1.1547533E0,1.2261887E0,2.9655101E0,1.181909E0,1.2622698E2,2.371703E0,4.043996E1,1.7044712E1,2.6981635E0,2.0033298E1,1.1489187E1,2.5221466E2,1.4212042E2,6.282402E1,1.4071396E2,2.9456808E1,5.587546E0,2.1068348E1,2.7851933E1],"tree_param":{"num_deleted":"0","num_feature":"8","num_nodes":"107","size_leaf_vector":"1"}},{"base_weights":[-4.9537425E-3,2.5376588E-1,-1.06437905E-2,-1.3609721E-2,3.4872526E-1,8.476584E-3,-9.63387E-2,-1.367195E-1,3.3235288E-1,7.7810395E-1,1.5072289E-1,-4.566259E-2,3.292521E-2,-2.0360677E-2,-1.8816166E-1,8.579626E-1,-1.7781822E-1,2.958854E-1,3.7579656E-1,-1.4465699E-1,6.807585E-1,3.8060702E-2,-1.2385664E-1,4.7239387E-1,1.2959503E-2,-1.8699461E-1,7.898705E-2,-2.5656545E-1,1.2781711E-1,3.2744467E-1,5.7520892E-2,-1.1423787E-1,6.1073255E-2,-1.7580485E-1,2.827214E-1,3.9577845E-1,-4.0574992E-1,1.8068914E-1,3.634627E-1,1.5696013E-2,5.936253E-1,1.6318426E-1,-1.5383989E-1,9.5271057E-1,1.5609792E-1,-1.7791886E-2,1.4523652E-1,5.2404374E-1,-2.3753473E-1,-1.4051346E-1,1.0655656E-1,-4.551043E-1,-1.989559E-1,1.2442714E-3,6.6507304E-1,-1.09413944E-1,4.4021167E-2,2.4252062E-1,-1.0039632E-1,5.0582055E-2,-1.5161203E-1,-4.760619E-2,2.1144514E-1,-2.576613E-2,4.234374E-2,2.891187E-1,-1.1143696E-1,-1.2350735E-1,8.139618E-2,-5.0606407E-2,8.399939E-2,4.1083416E-1,-2.585061E-2,-3.762205E-3,2.6477706E-1,-7.628626E-3,9.482383E-2,1.07624166E-1,1.0948949E-2,-8.930615E-2,2.7424526E-1,-1.0407399E-1,3.59454E-2,7.690598E-2,-1.6178507E-3,5.9192494E-2,-1.488122E-1,-1.4310195E-1,-3.680501E-2,-9.893481E-2,9.469417E-2,3.2989272E-1,-9.602928E-2],"categories":[],"categories_nodes":[],"categories_segments":[],"categories_sizes":[],"default_left":[0,0,0,0,0,0,0,0,0,0,0,0,0,0,0,0,0,0,0,0,0,0,0,0,0,0,0,0,0,0,0,0,0,0,0,0,0,0,0,0,0,0,0,0,0,0,0,0,0,0,0,0,0,0,0,0,0,0,0,0,0,0,0,0,0,0,0,0,0,0,0,0,0,0,0,0,0,0,0,0,0,0,0,0,0,0,0,0,0,0,0,0,0],"id":14,"left_children":[1,3,5,7,9,11,13,-1,15,17,19,21,23,25,27,29,31,33,-1,35,37,39,41,43,45,47,49,51,53,-1,-1,-1,-1,55,-1,57,59,61,-1,63,65,67,69,71,73,75,77,79,81,-1,83,85,87,89,91,-1,-1,-1,-1,-1,-1,-1,-1,-1,-1,-1,-1,-1,-1,-1,-1,-1,-1,-1,-1,-1,-1,-1,-1,-1,-1,-1,-1,-1,-1,-1,-1,-1,-1,-1,-1,-1,-1],"loss_changes":[2.2970726E0,8.5733056E-1,2.501134E0,1.6447742E0,1.992604E0,1.6540741E0,1.9387574E0,0E0,1.7763076E0,1.3666921E0,2.9517977E0,2.5502632E0,7.5457807E0,2.5557678E0,2.7552133E0,2.8144717E-1,3.7952128E-1,1.7132851E0,0E0,1.9283005E0,1.5586998E0,2.3333187E0,1.7574892E0,5.5293264E0,3.3556285E0,2.195393E0,1.5116299E0,1.0975294E0,1.5688084E0,0E0,0E0,0E0,0E0,2.8364778E-1,0E0,1.6530457E0,5.9679043E-1,9.3428004E-1,0E0,2.3349285E0,2.9543343E0,1.3253263E0,1.2245603E0,6.4578323E0,2.918459E0,1.7156281E0,3.5993867E0,1.5980505E0,2.171468E0,0E0,1.5615119E0,7.010617E-1,1.6866152E0,2.1526165E0,2.2354128E0,0E0,0E0,0E0,0E0,0E0,0E0,0E0,0E0,0E0,0E0,0E0,0E0,0E0,0E0,0E0,0E0,0E0,0E0,0E0,0E0,0E0,0E0,0E0,0E0,0E0,0E0,0E0,0E0,0E0,0E0,0E0,0E0,0E0,0E0,0E0,0E0,0E0,0E0],"parents":[2147483647,0,0,1,1,2,2,3,3,4,4,5,5,6,6,8,8,9,9,10,10,11,11,12,12,13,13,14,14,15,15,16,16,17,17,19,19,20,20,21,21,22,22,23,23,24,24,25,25,26,26,27,27,28,28,33,33,35,35,36,36,37,37,39,39,40,40,41,41,42,42,43,43,44,44,45,45,46,46,47,47,48,48,50,50,51,51,52,52,53,53,54,54],"right_children":[2,4,6,8,10,12,14,-1,16,18,20,22,24,26,28,30,32,34,-1,36,38,40,42,44,46,48,50,52,54,-1,-1,-1,-1,56,-1,58,60,62,-1,64,66,68,70,72,74,76,78,80,82,-1,84,86,88,90,92,-1,-1,-1,-1,-1,-1,-1,-1,-1,-1,-1,-1,-1,-1,-1,-1,-1,-1,-1,-1,-1,-1,-1,-1,-1,-1,-1,-1,-1,-1,-1,-1,-1,-1,-1,-1,-1,-1],"split_conditions":[-1.7800878E0,-5.307843E-1,9.252268E-1,-2.948238E-1,-3.407387E-1,-5.235181E-1,2.0397478E-1,-1.367195E-1,-3.7371328E-1,2.017235E0,1.0939506E0,-5.937708E-1,-4.4035652E-1,-3.2521594E-1,1.5679682E0,1.4715005E0,1.6513186E0,4.8168335E-2,3.7579656E-1,5.6122404E-1,-2.7889684E-1,-6.2950116E-1,-1.1941582E0,-3.2521594E-1,9.979174E-1,-1.3862292E0,-1.9046291E0,-4.1624868E-1,1.144605E0,3.2744467E-1,5.7520892E-2,-1.1423787E-1,6.1073255E-2,-6.2991595E-1,2.827214E-1,8.400077E-3,-1.2174766E0,9.391395E-1,3.634627E-1,-5.307843E-1,6.3880265E-1,-7.9559493E-1,2.0732002E0,7.164008E-1,-4.5258614E-1,1.8490503E0,5.7389885E-2,-9.5739365E-1,6.4089084E-1,-1.4051346E-1,-1.14208825E-1,-1.4468336E0,-5.602736E-1,-7.9559493E-1,7.9191077E-1,-1.09413944E-1,4.4021167E-2,2.4252062E-1,-1.0039632E-1,5.0582055E-2,-1.5161203E-1,-4.760619E-2,2.1144514E-1,-2.576613E-2,4.234374E-2,2.891187E-1,-1.1143696E-1,-1.2350735E-1,8.139618E-2,-5.0606407E-2,8.399939E-2,4.1083416E-1,-2.585061E-2,-3.762205E-3,2.6477706E-1,-7.628626E-3,9.482383E-2,1.07624166E-1,1.0948949E-2,-8.930615E-2,2.7424526E-1,-1.0407399E-1,3.59454E-2,7.690598E-2,-1.6178507E-3,5.9192494E-2,-1.488122E-1,-1.4310195E-1,-3.680501E-2,-9.893481E-2,9.469417E-2,3.2989272E-1,-9.602928E-2],"split_indices":[2,6,6,1,7,1,2,0,5,6,7,0,1,4,2,7,5,5,0,6,0,0,2,4,2,5,0,7,1,0,0,0,0,1,0,3,5,4,0,6,5,5,5,7,1,7,1,4,7,0,7,0,0,5,7,0,0,0,0,0,0,0,0,0,0,0,0,0,0,0,0,0,0,0,0,0,0,0,0,0,0,0,0,0,0,0,0,0,0,0,0,0,0],"split_type":[0,0,0,0,0,0,0,0,0,0,0,0,0,0,0,0,0,0,0,0,0,0,0,0,0,0,0,0,0,0,0,0,0,0,0,0,0,0,0,0,0,0,0,0,0,0,0,0,0,0,0,0,0,0,0,0,0,0,0,0,0,0,0,0,0,0,0,0,0,0,0,0,0,0,0,0,0,0,0,0,0,0,0,0,0,0,0,0,0,0,0,0,0],"sum_hessian":[1.5575417E3,3.257979E1,1.5249619E3,8.762901E0,2.3816887E1,1.2475155E3,2.7744644E2,3.7075558E0,5.055346E0,6.5920033E0,1.7224884E1,3.8783154E2,8.5968396E2,1.5249098E2,1.2495545E2,2.1542203E0,2.9011257E0,4.074836E0,2.5171676E0,1.1527746E1,5.697138E0,1.8754169E2,2.0028984E2,3.6374664E1,8.233093E2,5.6627907E1,9.5863075E1,1.02873245E2,2.2082201E1,1.1224751E0,1.0317451E0,1.8944831E0,1.0066426E0,2.7769163E0,1.2979196E0,3.5870564E0,7.9406896E0,3.6236215E0,2.0735166E0,1.8127267E2,6.269021E0,1.8522686E1,1.8176715E2,1.3643702E1,2.2730963E1,6.6871405E2,1.5459526E2,3.13622E0,5.3491688E1,3.8301554E0,9.203292E1,2.1585093E1,8.1288155E1,1.8682972E1,3.39923E0,1.6687863E0,1.1081301E0,2.22398E0,1.3630763E0,1.0713902E0,6.8692994E0,2.6226642E0,1.0009573E0,1.0033868E2,8.0934E1,4.5323076E0,1.7367133E0,2.4881277E0,1.603456E1,1.7634297E2,5.4241796E0,9.51047E0,4.133231E0,1.9246147E1,3.4848156E0,6.546633E2,1.4050727E1,5.1390686E1,1.03204575E2,1.0858558E0,2.050364E0,4.097827E1,1.2513418E1,3.8810993E1,5.3221928E1,1.0488846E0,2.053621E1,1.636732E1,6.492084E1,9.077054E0,9.605918E0,2.2781284E0,1.1211016E0],"tree_param":{"num_deleted":"0","num_feature":"8","num_nodes":"93","size_leaf_vector":"1"}},{"base_weights":[1.5418116E-2,1.8508655E-1,9.448661E-3,-8.791041E-2,3.541198E-1,-1.3805996E-1,1.5445379E-2,-1.4147879E-1,5.6524485E-2,6.0214937E-1,2.6003236E-2,-1.8567847E-1,3.005374E-1,1.7624645E-2,-3.8740152E-1,-2.023592E-1,3.5250914E-1,3.2683676E-1,4.5180118E-1,-2.3606381E-1,2.3638597E-1,-2.5371203E-1,1.12902984E-1,-1.7423272E-1,7.403075E-1,1.3891454E-2,2.8253353E-1,-1.5073743E-1,4.7021206E-2,-3.787046E-1,1.23296425E-1,1.045788E0,-1.2552896E-1,-1.505813E-1,5.7393575E-1,3.0022988E-3,-1.2962915E-1,-1.6492356E-1,4.3635792E-1,8.9750946E-2,-2.9266083E-1,-9.685571E-2,2.5603268E-1,-1.1404855E-1,5.938343E-2,3.5962445E-1,1.6576191E-2,4.9606204E-2,-1.1121434E-2,9.002178E-1,-9.542921E-2,-1.6827604E-2,-1.4422618E-1,4.2012265E-1,4.8110478E-2,1.894545E-1,-1.3463919E-1,-1.0426126E-1,4.0066823E-2,3.5654463E-2,2.2124073E-1,1.27116E-1,-1.1177801E-1,-1.10115506E-1,5.3871047E-2,3.0083644E-1,3.0874602E-2,-6.414163E-2,2.0699373E-1,6.3316487E-3,-1.11630425E-1,-1.3763033E-1,6.3273974E-2,1.0439486E-2,1.5276691E-1,8.581014E-2,-5.7154913E-3,1.3811721E-1,3.9515033E-1,1.1111079E-1,-1.20139636E-1],"categories":[],"categories_nodes":[],"categories_segments":[],"categories_sizes":[],"default_left":[0,0,0,0,0,0,0,0,0,0,0,0,0,0,0,0,0,0,0,0,0,0,0,0,0,0,0,0,0,0,0,0,0,0,0,0,0,0,0,0,0,0,0,0,0,0,0,0,0,0,0,0,0,0,0,0,0,0,0,0,0,0,0,0,0,0,0,0,0,0,0,0,0,0,0,0,0,0,0,0,0],"id":15,"left_children":[1,3,5,7,9,11,13,-1,15,17,19,21,23,25,27,29,31,-1,33,35,37,39,41,43,45,47,49,-1,-1,51,-1,53,55,57,59,61,-1,63,65,67,69,71,-1,-1,-1,-1,-1,73,75,77,79,-1,-1,-1,-1,-1,-1,-1,-1,-1,-1,-1,-1,-1,-1,-1,-1,-1,-1,-1,-1,-1,-1,-1,-1,-1,-1,-1,-1,-1,-1],"loss_changes":[1.5995412E0,2.508243E0,1.354042E0,1.2086369E0,2.698597E0,1.3048534E0,1.2969372E0,0E0,1.3271085E0,8.960781E-1,9.05037E-1,1.1370758E0,1.4316274E0,1.442494E0,5.765003E-1,1.1699151E0,2.7862394E0,0E0,1.2775152E0,3.4619156E-1,7.9772645E-1,6.2488246E-1,1.7630675E0,3.672276E-1,1.0107912E0,1.2898934E0,4.8188667E0,0E0,0E0,2.2995353E-1,0E0,8.356397E-1,1.6623176E0,2.4347645E-1,9.295697E-1,8.387556E-1,0E0,3.2587683E-1,1.0886266E0,1.1173723E0,1.015482E0,1.1357863E0,0E0,0E0,0E0,0E0,0E0,4.029509E0,2.00763E0,8.224888E-1,2.063801E0,0E0,0E0,0E0,0E0,0E0,0E0,0E0,0E0,0E0,0E0,0E0,0E0,0E0,0E0,0E0,0E0,0E0,0E0,0E0,0E0,0E0,0E0,0E0,0E0,0E0,0E0,0E0,0E0,0E0,0E0],"parents":[2147483647,0,0,1,1,2,2,3,3,4,4,5,5,6,6,8,8,9,9,10,10,11,11,12,12,13,13,14,14,15,15,16,16,18,18,19,19,20,20,21,21,22,22,23,23,24,24,25,25,26,26,29,29,31,31,32,32,33,33,34,34,35,35,37,37,38,38,39,39,40,40,41,41,47,47,48,48,49,49,50,50],"right_children":[2,4,6,8,10,12,14,-1,16,18,20,22,24,26,28,30,32,-1,34,36,38,40,42,44,46,48,50,-1,-1,52,-1,54,56,58,60,62,-1,64,66,68,70,72,-1,-1,-1,-1,-1,74,76,78,80,-1,-1,-1,-1,-1,-1,-1,-1,-1,-1,-1,-1,-1,-1,-1,-1,-1,-1,-1,-1,-1,-1,-1,-1,-1,-1,-1,-1,-1,-1],"split_conditions":[-1.8051845E0,-3.2521594E-1,-1.5190109E0,-7.646352E-1,-3.407387E-1,2.017235E0,2.0000703E0,-1.4147879E-1,-1.897188E-1,-1.4831533E0,-3.487829E-1,7.986378E-1,7.15775E-1,1.8490503E0,1.5612177E0,-5.5581953E-2,-3.869886E-2,3.2683676E-1,-6.7015606E-1,-1.1280833E-1,-2.0057507E0,-1.7795023E0,-1.897188E-1,-1.5752672E0,-1.897188E-1,8.400077E-3,-4.4035652E-1,-1.5073743E-1,4.7021206E-2,-6.9897485E-1,1.23296425E-1,-1.4267353E0,-2.0057507E0,-9.3544257E-1,-6.9897485E-1,-6.741642E-1,-1.2962915E-1,-6.205686E-1,-1.9543861E0,7.9191077E-1,-1.2068613E0,1.5679682E0,2.5603268E-1,-1.1404855E-1,5.938343E-2,3.5962445E-1,1.6576191E-2,1.9832002E0,-1.8242357E0,1.1860365E-1,-6.01877E-1,-1.6827604E-2,-1.4422618E-1,4.2012265E-1,4.8110478E-2,1.894545E-1,-1.3463919E-1,-1.0426126E-1,4.0066823E-2,3.5654463E-2,2.2124073E-1,1.27116E-1,-1.1177801E-1,-1.10115506E-1,5.3871047E-2,3.0083644E-1,3.0874602E-2,-6.414163E-2,2.0699373E-1,6.3316487E-3,-1.11630425E-1,-1.3763033E-1,6.3273974E-2,1.0439486E-2,1.5276691E-1,8.581014E-2,-5.7154913E-3,1.3811721E-1,3.9515033E-1,1.1111079E-1,-1.20139636E-1],"split_indices":[1,4,1,2,7,6,7,0,7,2,6,2,3,7,0,0,7,0,2,2,1,1,7,1,7,3,1,0,0,3,0,0,1,0,3,0,0,0,1,7,2,2,0,0,0,0,0,2,0,0,2,0,0,0,0,0,0,0,0,0,0,0,0,0,0,0,0,0,0,0,0,0,0,0,0,0,0,0,0,0,0],"split_type":[0,0,0,0,0,0,0,0,0,0,0,0,0,0,0,0,0,0,0,0,0,0,0,0,0,0,0,0,0,0,0,0,0,0,0,0,0,0,0,0,0,0,0,0,0,0,0,0,0,0,0,0,0,0,0,0,0,0,0,0,0,0,0,0,0,0,0,0,0,0,0,0,0,0,0,0,0,0,0,0,0],"sum_hessian":[1.5800088E3,5.26804E1,1.5273284E3,2.0328615E1,3.2351784E1,5.880508E1,1.4685233E3,4.9401617E0,1.5388454E1,1.7948786E1,1.4402999E1,5.3566067E1,5.2390127E0,1.4615729E3,6.950364E0,8.377432E0,7.0110226E0,2.7592683E0,1.5189517E1,6.359324E0,8.043674E0,4.374808E1,9.8179865E0,2.8096068E0,2.4294057E0,1.4422999E3,1.9272964E1,5.8004713E0,1.1498929E0,6.803808E0,1.5736235E0,2.3766289E0,4.6343937E0,2.5212915E0,1.2668225E1,3.3088312E0,3.0504928E0,2.7334247E0,5.31025E0,4.322912E0,3.9425167E1,8.328217E0,1.4897691E0,1.7949771E0,1.0146298E0,1.0061952E0,1.4232104E0,5.9365875E2,8.4864124E2,6.7917714E0,1.2481193E1,2.0073972E0,4.796411E0,1.2816721E0,1.0949566E0,1.1014463E0,3.5329473E0,1.3573097E0,1.1639818E0,3.8053331E0,8.862892E0,1.5002366E0,1.8085946E0,1.6813996E0,1.0520251E0,1.2238598E0,4.08639E0,3.2985256E0,1.0243868E0,8.113523E0,3.1311646E1,3.6019654E0,4.7262516E0,5.761714E2,1.7487358E1,2.1147497E1,8.274937E2,4.3292117E0,2.4625597E0,4.8543253E0,7.626867E0],"tree_param":{"num_deleted":"0","num_feature":"8","num_nodes":"81","size_leaf_vector":"1"}},{"base_weights":[-6.8074814E-3,2.7677105E-3,-2.060124E-1,-6.0106926E-3,3.3492666E-1,-2.4243903E-1,3.166321E-1,-2.2864508E-2,1.1613748E-1,-4.1640066E-3,4.607814E-1,-2.770418E-1,1.2663594E-1,2.737769E-1,-1.5681654E-1,2.318021E-2,-6.189619E-2,2.1949308E-1,-4.1691724E-2,-3.706906E-1,5.718916E-1,7.582995E-1,1.3968113E-1,-4.3429768E-1,-1.6485713E-1,-2.5581932E-1,2.4338049E-1,-1.0967076E-1,5.995192E-2,-4.0086575E-2,1.3323373E-1,-1.6685415E-2,-1.5483049E-1,-1.3655238E-1,2.4658777E-1,3.4147397E-1,-1.2928186E-1,4.3330345E-2,-1.4660165E-1,4.663172E-1,-1.5345266E-1,3.6066994E-1,1.0798248E0,5.976495E-1,-1.9468558E-1,5.3878088E-2,-4.6960688E-1,-3.6181232E-1,-6.250695E-3,-1.2683393E-1,4.6040315E-2,2.2375941E-1,-1.7113233E-2,-6.2792716E-3,7.3014505E-2,1.3714238E-1,-8.151978E-3,-5.9976276E-2,4.744225E-2,4.869167E-2,1.6471095E-1,2.3464475E-2,2.4764456E-1,-5.038655E-2,2.09731E-1,-1.0750038E-1,4.8758954E-2,-5.8794778E-2,2.163811E-1,1.2590423E-1,4.6425432E-1,-1.681798E-2,4.9561155E-1,-1.4024635E-1,3.3979986E-2,-1.5101941E-1,-5.0120935E-2,-1.2301023E-1,5.6253273E-2,1.2850437E-1,-6.516172E-2],"categories":[],"categories_nodes":[],"categories_segments":[],"categories_sizes":[],"default_left":[0,0,0,0,0,0,0,0,0,0,0,0,0,0,0,0,0,0,0,0,0,0,0,0,0,0,0,0,0,0,0,0,0,0,0,0,0,0,0,0,0,0,0,0,0,0,0,0,0,0,0,0,0,0,0,0,0,0,0,0,0,0,0,0,0,0,0,0,0,0,0,0,0,0,0,0,0,0,0,0,0],"id":16,"left_children":[1,3,5,7,9,11,13,15,17,19,21,23,25,-1,27,29,31,33,35,37,39,41,43,45,47,49,-1,-1,-1,51,53,55,57,-1,59,61,63,-1,-1,-1,65,67,69,71,73,-1,75,77,79,-1,-1,-1,-1,-1,-1,-1,-1,-1,-1,-1,-1,-1,-1,-1,-1,-1,-1,-1,-1,-1,-1,-1,-1,-1,-1,-1,-1,-1,-1,-1,-1],"loss_changes":[2.9716449E0,4.338386E0,1.4370503E0,2.9874616E0,1.6368198E0,8.953562E-1,1.5790101E0,2.2927175E0,2.879506E0,2.6107364E0,2.5640912E0,1.020441E0,1.8991448E0,0E0,3.4774035E-1,4.0829854E0,2.897709E0,2.0588522E0,2.409262E0,5.2942896E-1,3.667091E0,1.4363594E0,2.3623571E0,6.2973595E-1,1.1766632E0,4.0007916E-1,0E0,0E0,0E0,5.0089192E0,3.639109E0,2.3256419E0,3.2179165E0,0E0,2.5371356E0,1.6411557E0,1.9782302E0,0E0,0E0,0E0,2.9634118E-1,1.7243983E0,1.6336031E0,4.5282755E0,8.2853127E-1,0E0,1.6196156E-1,5.223584E-1,2.1029186E0,0E0,0E0,0E0,0E0,0E0,0E0,0E0,0E0,0E0,0E0,0E0,0E0,0E0,0E0,0E0,0E0,0E0,0E0,0E0,0E0,0E0,0E0,0E0,0E0,0E0,0E0,0E0,0E0,0E0,0E0,0E0,0E0],"parents":[2147483647,0,0,1,1,2,2,3,3,4,4,5,5,6,6,7,7,8,8,9,9,10,10,11,11,12,12,14,14,15,15,16,16,17,17,18,18,19,19,20,20,21,21,22,22,23,23,24,24,25,25,29,29,30,30,31,31,32,32,34,34,35,35,36,36,40,40,41,41,42,42,43,43,44,44,46,46,47,47,48,48],"right_children":[2,4,6,8,10,12,14,16,18,20,22,24,26,-1,28,30,32,34,36,38,40,42,44,46,48,50,-1,-1,-1,52,54,56,58,-1,60,62,64,-1,-1,-1,66,68,70,72,74,-1,76,78,80,-1,-1,-1,-1,-1,-1,-1,-1,-1,-1,-1,-1,-1,-1,-1,-1,-1,-1,-1,-1,-1,-1,-1,-1,-1,-1,-1,-1,-1,-1,-1,-1],"split_conditions":[1.7886842E0,1.6235442E0,1.553075E0,1.2887735E0,-6.413048E-1,1.6532323E0,-5.424659E-1,-9.127066E-3,7.15775E-1,-8.907919E-2,-3.487829E-1,8.400077E-3,9.429307E-1,2.737769E-1,3.069618E-1,1.4093514E-1,2.5035942E-1,-1.2174766E0,1.4026642E0,-1.4468336E0,3.1288758E-1,1.7331083E0,-3.1561416E-1,-1.9543861E0,-2.2022296E-1,4.9600577E-1,2.4338049E-1,-1.0967076E-1,5.995192E-2,-1.8301063E0,-5.307843E-1,-2.0057507E0,1.4715005E0,-1.3655238E-1,5.6122404E-1,1.2552284E0,2.3039749E0,4.3330345E-2,-1.4660165E-1,4.663172E-1,1.0163294E0,8.400077E-3,-4.953899E-1,-4.1624868E-1,1.9722125E-1,5.3878088E-2,1.3138132E0,1.5470104E0,-2.3423386E-1,-1.2683393E-1,4.6040315E-2,2.2375941E-1,-1.7113233E-2,-6.2792716E-3,7.3014505E-2,1.3714238E-1,-8.151978E-3,-5.9976276E-2,4.744225E-2,4.869167E-2,1.6471095E-1,2.3464475E-2,2.4764456E-1,-5.038655E-2,2.09731E-1,-1.0750038E-1,4.8758954E-2,-5.8794778E-2,2.163811E-1,1.2590423E-1,4.6425432E-1,-1.681798E-2,4.9561155E-1,-1.4024635E-1,3.3979986E-2,-1.5101941E-1,-5.0120935E-2,-1.2301023E-1,5.6253273E-2,1.2850437E-1,-6.516172E-2],"split_indices":[2,2,1,0,4,6,5,4,3,0,6,3,7,0,4,0,0,5,0,0,0,2,1,1,1,0,0,0,0,2,6,1,7,0,6,4,1,0,0,0,0,3,1,7,6,0,5,7,0,0,0,0,0,0,0,0,0,0,0,0,0,0,0,0,0,0,0,0,0,0,0,0,0,0,0,0,0,0,0,0,0],"split_type":[0,0,0,0,0,0,0,0,0,0,0,0,0,0,0,0,0,0,0,0,0,0,0,0,0,0,0,0,0,0,0,0,0,0,0,0,0,0,0,0,0,0,0,0,0,0,0,0,0,0,0,0,0,0,0,0,0,0,0,0,0,0,0,0,0,0,0,0,0,0,0,0,0,0,0,0,0,0,0,0,0],"sum_hessian":[1.5566361E3,1.4861857E3,7.045045E1,1.4488762E3,3.730946E1,6.6361404E1,4.089046E0,1.273916E3,1.7496014E2,1.0360922E1,2.6948538E1,6.0900974E1,5.4604287E0,1.3996669E0,2.6893792E0,5.846385E2,6.892775E2,1.0548913E2,6.947101E1,6.549914E0,